{
  "type": "NeuralNetwork",
  "sizes": [5501, 20, 4],
  "layers": [
    { "weights": [], "biases": [] },
    {
      "weights": [
        [
          -0.38361555337905884, -0.13255614042282104, -0.49890780448913574,
          -0.47652164101600647, -0.1830771565437317, -0.3541005551815033,
          -0.29735618829727173, -0.4976404011249542, -0.5321900248527527,
          -0.24255900084972382, -0.49127355217933655, -0.5247382521629333,
          -0.4151228964328766, -0.3785494565963745, -0.22432085871696472,
          -0.2669332027435303, -0.3372912108898163, -0.2678619921207428,
          -0.31805065274238586, -0.30374637246131897, -0.43968409299850464,
          -0.38303422927856445, -0.26574358344078064, -0.31453046202659607,
          -0.40647536516189575, -0.39990854263305664, -0.32532191276550293,
          -0.44414281845092773, -0.4133851230144501, -0.2967223525047302,
          -0.319668710231781, -0.1837393343448639, -0.2549108564853668,
          -0.5241506695747375, -0.36805957555770874, -0.26725825667381287,
          -0.48472705483436584, -0.36626461148262024, -0.365797221660614,
          -0.3040435016155243, -0.1754184365272522, -0.30581775307655334,
          -0.27978938817977905, -0.2766680121421814, -0.07487338036298752,
          -0.3148770332336426, -0.08670186251401901, -0.24386776983737946,
          -0.23697324097156525, -0.18653692305088043, 0.08008500188589096,
          0.0748889371752739, -0.28251758217811584, 0.017519552260637283,
          -0.13688914477825165, -0.01995764672756195, 0.14307180047035217,
          -0.006159267388284206, 0.011409753002226353, 0.09467462450265884,
          0.1481771022081375, 0.1417248249053955, 0.048919677734375,
          -0.05140933394432068, 0.1946457475423813, 0.06047835573554039,
          0.2607165277004242, 0.7844743728637695, 0.7935991287231445,
          0.7824723720550537, 0.5964182019233704, 0.6687275171279907,
          0.836688756942749, 0.723781406879425, 0.7109822630882263,
          0.9804409742355347, 0.8472780585289001, 0.6451264023780823,
          0.967917263507843, 0.8508512377738953, 0.6409121751785278,
          0.9572954773902893, 0.8174577951431274, 0.6689229607582092,
          0.7881715297698975, 0.7754666805267334, 0.6667951941490173,
          0.7690053582191467, 0.6342772245407104, 0.7583006024360657,
          0.8442996740341187, 0.9000558257102966, 0.7620968222618103,
          0.9023385643959045, 0.6196654438972473, 0.5491130948066711,
          0.6240792870521545, 0.6036643981933594, 0.7586605548858643,
          0.4641757309436798, 0.5246848464012146, 0.5897142887115479,
          0.6292634606361389, 0.5977830290794373, 0.6123029589653015,
          0.5328718423843384, 0.5408072471618652, 0.7048550248146057,
          0.5267099142074585, 0.6184640526771545, 0.6728745698928833,
          0.5993226170539856, 0.442462295293808, 0.31393924355506897,
          0.6467726826667786, 0.4372425079345703, 0.3109942674636841,
          0.6710493564605713, 0.4663703441619873, 0.4760003089904785,
          0.5111243724822998, 0.25080832839012146, 0.3987830877304077,
          0.3886384069919586, 0.5752267837524414, 0.31807348132133484,
          0.5163449645042419, 0.5596008896827698, 0.3448200821876526,
          0.2683820128440857, 0.5486506819725037, 0.21631690859794617,
          0.22727173566818237, 0.335522323846817, 0.1637013703584671,
          0.1935562789440155, 0.2217751294374466, 0.3463602364063263,
          0.22584810853004456, 0.3653137683868408, 0.33366310596466064,
          0.2631334066390991, 0.3422934412956238, 0.21446608006954193,
          0.3948511779308319, 0.16790591180324554, 0.2889597713947296,
          0.18494613468647003, 0.25910183787345886, 0.22004567086696625,
          0.25824445486068726, 0.39467954635620117, 0.4345504343509674,
          0.10155302286148071, 0.32908138632774353, 0.18784523010253906,
          0.24256736040115356, 0.01583266258239746, 0.10171674191951752,
          0.3523862063884735, 0.061624784022569656, 0.28509286046028137,
          0.08533953130245209, 0.3263062834739685, 0.05599157512187958,
          0.04962238296866417, 0.1754816770553589, 0.3091544508934021,
          0.1737605780363083, 0.01630515046417713, -0.007951945066452026,
          0.12034089863300323, 0.06818391382694244, 0.213231161236763,
          -0.014292233623564243, 0.006455641705542803, 0.11770567297935486,
          0.25039705634117126, 0.22543030977249146, -0.021116169169545174,
          -0.022375954315066338, 0.10037767142057419, -0.007428016979247332,
          0.3268168270587921, 0.15022243559360504, 0.19825728237628937,
          0.005466647911816835, 0.07185512036085129, 0.16995537281036377,
          0.27016574144363403, 0.17214637994766235, 0.2726341187953949,
          -0.004871598910540342, -0.02645905874669552, 0.010704574175179005,
          0.14243045449256897, 0.10244608670473099, 0.08112632483243942,
          0.08073704689741135, 0.12414418905973434, 0.21379117667675018,
          0.09684071689844131, -0.030537500977516174, -0.07176519185304642,
          -0.038811106234788895, -0.11172222346067429, 0.2321864664554596,
          0.1340167373418808, -0.00029626727337017655, -0.059560827910900116,
          0.2005089372396469, 0.1867583692073822, -0.04084009677171707,
          0.16902190446853638, -0.0008286404190585017, 0.03729551285505295,
          0.15679626166820526, 0.2411630004644394, 0.1607062816619873,
          -0.09050264209508896, 0.163369819521904, 0.09708784520626068,
          -0.018557075411081314, 0.11534042656421661, -0.08037757128477097,
          -0.0947616845369339, 0.056173745542764664, 0.20812056958675385,
          0.18918567895889282, 0.0513962097465992, 0.09100116789340973,
          0.17248746752738953, 0.11952892690896988, 0.0347098745405674,
          0.12985989451408386, 0.09713811427354813, -0.003622746095061302,
          -0.0469457283616066, 0.13926252722740173, 0.04028477147221565,
          -0.12942059338092804, -0.0008817219058983028, 0.19326764345169067,
          0.0933927372097969, 0.107070691883564, 0.06690237671136856,
          -0.05410318449139595, -0.06031454727053642, 0.15985704958438873,
          0.18195182085037231, 0.060079846531152725, 0.12959420680999756,
          -0.0016733327647671103, 0.13016808032989502, -0.00013716000830754638,
          -0.050484780222177505, 0.20618730783462524, 0.22009775042533875,
          0.11005169153213501, 0.1811933070421219, 0.15958496928215027,
          0.1199333518743515, 0.11231519281864166, 0.08535654097795486,
          -0.13679178059101105, 0.036211829632520676, -0.091569684445858,
          -0.043350886553525925, -0.06259095668792725, -0.14074070751667023,
          0.025292469188570976, -0.06452001631259918, -0.00840501394122839,
          0.05665368586778641, -0.039960119873285294, -0.16566364467144012,
          0.22675754129886627, 0.1933869570493698, 0.12134366482496262,
          0.055074989795684814, 0.07606726139783859, 0.21655845642089844,
          0.03898812457919121, 0.14819103479385376, -0.05034523457288742,
          0.024455193430185318, 0.14524737000465393, -0.026219427585601807,
          0.039448171854019165, 0.012467177584767342, -0.15326979756355286,
          -0.012385223060846329, 0.16284383833408356, 0.06195072829723358,
          0.18690596520900726, 0.01935645006597042, -0.1280866265296936,
          0.13273358345031738, 0.007636227644979954, 0.06604094803333282,
          -0.17420747876167297, 0.05137534812092781, 0.021356217563152313,
          0.1888434737920761, 0.10954418778419495, 0.06770562380552292,
          -0.09837372601032257, 0.029572516679763794, 0.17657364904880524,
          -0.05361030623316765, 0.0596158504486084, -0.020771080628037453,
          -0.08924902975559235, -0.0015746895223855972, 0.16656328737735748,
          0.03836967796087265, 0.154239684343338, 0.0778065025806427,
          -0.024921583011746407, -0.1206957995891571, 0.1485247015953064,
          0.05458904057741165, -0.0059094419702887535, 0.16611383855342865,
          0.04228009656071663, 0.08033379912376404, 0.1564147025346756,
          -0.09338826686143875, 0.1223440170288086, -0.1663713902235031,
          -0.1011020690202713, -0.011887875385582447, 0.18518488109111786,
          0.061849214136600494, -0.09104131907224655, -0.11474162340164185,
          0.06768745183944702, 0.11686064302921295, -0.06686598062515259,
          0.07684154808521271, 0.10106129199266434, 0.17756952345371246,
          0.10818743705749512, -0.023894423618912697, 0.19324535131454468,
          0.19349955022335052, -0.16645082831382751, 0.1804186999797821,
          -0.012321146205067635, 0.11717908084392548, -0.004247856326401234,
          0.13315680623054504, 0.08024550974369049, -0.14532895386219025,
          -0.1682826429605484, -0.015637872740626335, -0.16076509654521942,
          -0.042293280363082886, -0.12772446870803833, -0.0012444333406165242,
          0.1601780205965042, 0.14432767033576965, 0.053995344787836075,
          0.17456260323524475, 0.10645990073680878, -0.06537474691867828,
          -0.11463376134634018, 0.21517090499401093, 0.15502342581748962,
          -0.03434713929891586, -0.016034474596381187, 0.055813487619161606,
          -0.026408500969409943, 0.09014784544706345, -0.15875950455665588,
          0.11090850830078125, 0.018926411867141724, 0.1055556908249855,
          -0.004917959216982126, 0.13561663031578064, 0.10750358551740646,
          -0.03468037396669388, 0.08315537124872208, -0.03882667049765587,
          0.08450435101985931, 0.21361517906188965, 0.10265188664197922,
          0.06517434865236282, 0.09303571283817291, 0.010144276544451714,
          -0.017560919746756554, -0.13228927552700043, 0.18661537766456604,
          -0.08623434603214264, -0.13322342932224274, 0.036784324795007706,
          -0.020979417487978935, 0.14286093413829803, 0.17127110064029694,
          0.18358492851257324, -0.05769956856966019, -0.14189311861991882,
          -0.05125191807746887, -0.10868345201015472, 0.2218816876411438,
          -0.02274390123784542, -0.007395626977086067, -0.024437962099909782,
          0.02412818931043148, -0.1502748280763626, 0.006818459834903479,
          0.1451173573732376, -0.16675293445587158, 0.13184134662151337,
          0.20338891446590424, 0.0779394879937172, 0.17620733380317688,
          0.14765925705432892, -0.11194715648889542, 0.08083999902009964,
          0.15063588321208954, 0.1673332154750824, 0.16740527749061584,
          0.0491616390645504, 0.20611535012722015, 0.22633971273899078,
          -0.01731283590197563, -0.0632905438542366, 0.16907411813735962,
          0.060036249458789825, 0.19338080286979675, -0.17613142728805542,
          -0.12713061273097992, 0.0913144126534462, 0.13619010150432587,
          0.1493835151195526, 0.16808441281318665, 0.03693987429141998,
          0.04658091813325882, -0.08619766682386398, -0.14101456105709076,
          0.0833551213145256, 0.12924355268478394, 0.024440864101052284,
          -0.004588051699101925, -0.004854030441492796, 0.0869232639670372,
          0.13405896723270416, 0.18401175737380981, -0.1834680587053299,
          0.11022108793258667, 0.0905444473028183, -0.05118735879659653,
          0.15511037409305573, 0.05196571350097656, -0.13966597616672516,
          -0.16942310333251953, 0.06077519431710243, -0.14284522831439972,
          -0.07617849856615067, -0.00011853060277644545, 0.015556798316538334,
          -0.15339906513690948, -0.04695995897054672, 0.06486126780509949,
          0.049974143505096436, 0.20317059755325317, 0.18923254311084747,
          -0.06720251590013504, -0.038218915462493896, -0.0931251123547554,
          -0.09336535632610321, -0.126511350274086, -0.15726503729820251,
          -0.09708978980779648, -0.1625872254371643, -0.18167465925216675,
          -0.027423949912190437, -0.06097504869103432, -0.0973750576376915,
          -0.12179992347955704, 0.1666416972875595, -0.06844139844179153,
          0.1222129687666893, 0.042535945773124695, 0.16682708263397217,
          0.0917184129357338, -0.051012080162763596, 0.005881914868950844,
          0.10450700670480728, -0.09310644865036011, 0.12704752385616302,
          0.1474238485097885, -0.13237936794757843, 0.006992684677243233,
          -0.1225961223244667, 0.11491484194993973, -0.11388037353754044,
          0.07925441861152649, -0.12117385119199753, 0.18958024680614471,
          -0.14690549671649933, 0.06249222159385681, -0.049150701612234116,
          -0.143464133143425, -0.09596585482358932, -0.03142193704843521,
          -0.15796278417110443, 0.12853220105171204, 0.039786260575056076,
          0.04415464401245117, 0.16557694971561432, -0.1263342797756195,
          0.0793614313006401, -0.06988858431577682, 0.16387464106082916,
          -0.05268225446343422, 0.15064644813537598, -0.11496397107839584,
          0.08785077929496765, 0.09015122801065445, -0.0874996930360794,
          -0.15814265608787537, 0.013965857215225697, 0.005308749154210091,
          0.11665578931570053, 0.028074778616428375, 0.17162230610847473,
          -0.12237705290317535, -0.15554605424404144, -0.16648319363594055,
          -0.12047726660966873, -0.09078539907932281, -0.10988349467515945,
          0.12931475043296814, -0.05881913751363754, 0.0005127350450493395,
          0.021362612023949623, -0.01840938813984394, 0.11679024994373322,
          0.10953220725059509, 0.10951363295316696, 0.011257241480052471,
          -0.10311022400856018, -0.06145522743463516, -0.13380850851535797,
          -0.15758772194385529, 0.17371800541877747, -0.17173920571804047,
          0.08531192690134048, -0.03362516686320305, -0.05924524739384651,
          0.021789001300930977, -0.022878063842654228, 0.13067591190338135,
          -0.0023543224669992924, 0.01869644783437252, -0.15167830884456635,
          0.13169775903224945, -0.13652603328227997, -0.03667804226279259,
          -0.020468106493353844, -0.15643249452114105, -0.16178375482559204,
          0.021761219948530197, 0.024173609912395477, -0.038603972643613815,
          -0.15911538898944855, 0.19866035878658295, -0.044581376016139984,
          0.1053219735622406, 0.042556632310152054, 0.142568901181221,
          0.054965682327747345, -0.0032833826262503862, -0.013305535539984703,
          -0.08780009299516678, 0.09688721597194672, -0.026055576279759407,
          -0.17562371492385864, 0.15989850461483002, 0.12038733065128326,
          -0.17550407350063324, 0.1712964028120041, 0.2010897547006607,
          0.0007339208386838436, 0.19444219768047333, 0.15057195723056793,
          -0.11409450322389603, 0.0619690828025341, 0.2093420773744583,
          0.14161790907382965, -0.09294276684522629, 0.1019994243979454,
          -0.022321728989481926, -0.16877128183841705, -0.03202972561120987,
          0.044817402958869934, 0.02285892330110073, -0.13076239824295044,
          0.16898196935653687, -0.139203742146492, 0.15676850080490112,
          0.014188572764396667, -0.0863528922200203, -0.003293097484856844,
          0.18231971561908722, 0.10512613505125046, -0.11338837444782257,
          0.03843706473708153, -0.0519411675632, -0.039427030831575394,
          0.162711039185524, -0.045565083622932434, 0.015875447541475296,
          0.14529050886631012, 0.20219826698303223, -0.07578068226575851,
          0.034996312111616135, -0.01723066158592701, 0.11366217583417892,
          -0.13081373274326324, -0.13408608734607697, 0.05835564434528351,
          -0.1604076325893402, 0.08469367027282715, -0.14140808582305908,
          -0.04244620352983475, 0.05948084220290184, 0.20476582646369934,
          -0.11829554289579391, 0.0858226865530014, 0.06502195447683334,
          0.1365271359682083, -0.06674852222204208, 0.07672255486249924,
          -0.032886773347854614, -0.16098381578922272, -0.040591299533843994,
          -0.10812626779079437, 0.010671493597328663, -0.17060433328151703,
          0.052092548459768295, -0.1392340213060379, 0.06331761181354523,
          0.17693330347537994, 0.19063594937324524, 0.1542452573776245,
          -0.017183510586619377, 0.1920304298400879, -0.028829757124185562,
          0.13498975336551666, -0.17753949761390686, 0.180265873670578,
          0.19243310391902924, 0.11125099658966064, 0.07875664532184601,
          0.028119659051299095, -0.13343225419521332, 0.10382051765918732,
          -0.1700076460838318, -0.04458367079496384, -0.16418559849262238,
          -0.16943039000034332, 0.010068223811686039, 0.010346999391913414,
          -0.13183102011680603, 0.022092990577220917, 0.1608419418334961,
          -0.10528363287448883, -0.032765332609415054, 0.024149056524038315,
          -0.1769695281982422, 0.10366087406873703, -0.022185377776622772,
          0.16172268986701965, 0.15677693486213684, -0.012690907344222069,
          0.15125994384288788, 0.17790180444717407, 0.05620627850294113,
          0.10653660446405411, 0.11877027153968811, 0.17789708077907562,
          0.18282218277454376, -0.02568846009671688, 0.20489265024662018,
          -0.028126826509833336, 0.14612868428230286, -0.0731184333562851,
          -0.05397222936153412, -0.11916037648916245, 0.06953690201044083,
          -0.14597952365875244, 0.1616523265838623, 0.10479158163070679,
          -0.07036924362182617, 0.10590119659900665, 0.11224681884050369,
          -0.12245887517929077, 0.02719499170780182, -0.13343241810798645,
          -0.1491546779870987, 0.016671208664774895, 0.011379202827811241,
          0.0212766844779253, -0.1303844153881073, 0.07696297019720078,
          -0.0915350615978241, 0.16436585783958435, 0.10966423153877258,
          0.03577762842178345, 0.19043463468551636, -0.15172414481639862,
          0.055898360908031464, -0.04432261362671852, 0.1638590544462204,
          -0.16970449686050415, 0.15617120265960693, 0.20046307146549225,
          0.11964114010334015, -0.10249118506908417, -0.08568253368139267,
          -0.023903338238596916, 0.18272048234939575, 0.001964942552149296,
          0.20086954534053802, -0.1695430725812912, -0.009491246193647385,
          0.044739071279764175, -0.0017733311979100108, 0.029912803322076797,
          -0.03171751648187637, 0.03382448852062225, 0.05644062161445618,
          -0.08515865355730057, 0.1563037782907486, -0.008528238162398338,
          -0.18532903492450714, -0.10921557247638702, 0.08893609791994095,
          -0.15219458937644958, 0.003700464265421033, 0.19040648639202118,
          -0.05830603837966919, -0.00281718117184937, 0.07861950993537903,
          0.04878218099474907, 0.02552095055580139, -0.04887502267956734,
          -0.14624251425266266, -0.15875811874866486, 0.11393675953149796,
          -0.037293385714292526, -0.17846623063087463, -0.002817567903548479,
          0.004815088119357824, 0.06048952415585518, 0.015498071908950806,
          -0.0659254789352417, 0.16886529326438904, 0.20424726605415344,
          -0.060492463409900665, -0.01130308210849762, 0.18915218114852905,
          -0.11850180476903915, 0.1987561285495758, 0.15644043684005737,
          -0.0373707078397274, -0.15535733103752136, 0.04462532326579094,
          0.007810637354850769, -0.1695484220981598, -0.05004673823714256,
          0.04389652609825134, 0.028381619602441788, 0.08527977764606476,
          0.07944133132696152, 0.008190710097551346, 0.17141008377075195,
          0.017601069062948227, -0.1437847912311554, 0.006197241134941578,
          0.20102249085903168, -0.11413799226284027, 0.14888428151607513,
          -0.009919445030391216, -0.01247056107968092, -0.15622062981128693,
          0.13443608582019806, -0.11680513620376587, 0.12197193503379822,
          -0.044192370027303696, -0.16563645005226135, 0.008880642242729664,
          -0.04860895872116089, -0.003556074108928442, 0.10726065933704376,
          -0.1599683314561844, -0.18634353578090668, -0.1522640883922577,
          -0.1559789627790451, 0.060294996947050095, -0.1682494878768921,
          -0.04716553911566734, -0.12110496312379837, 0.029557714238762856,
          -0.04456381872296333, -0.11928277462720871, -0.04634463042020798,
          0.014569432474672794, 0.025833364576101303, 0.06158117577433586,
          -0.06619756668806076, 0.09420961141586304, 0.03502408787608147,
          -0.1726379245519638, -0.19243986904621124, 0.06274253875017166,
          -0.02538066729903221, 0.060506727546453476, 0.016910333186388016,
          0.08582202345132828, -0.12885405123233795, -0.1621040552854538,
          0.13210979104042053, 0.16459603607654572, 0.0009433903032913804,
          0.018411148339509964, -0.022074051201343536, 0.06460268795490265,
          0.1719684600830078, -0.12079082429409027, -0.016132647171616554,
          0.10746339708566666, 0.08406732976436615, -0.10629793256521225,
          0.18528521060943604, 0.014271159656345844, 0.12551505863666534,
          0.01902957819402218, 0.1903768628835678, -0.006055044941604137,
          -0.14968004822731018, -0.07899285852909088, -0.14950977265834808,
          0.0426185242831707, 0.1833222508430481, -0.09576458483934402,
          0.07554265111684799, -0.034034281969070435, 0.024461768567562103,
          0.10259145498275757, 0.035249847918748856, -0.10162746161222458,
          -0.028974998742341995, 0.1515275239944458, 0.1296786069869995,
          -0.15122202038764954, 0.19789548218250275, 0.03222150355577469,
          -0.08867571502923965, 0.14673157036304474, 0.12063392996788025,
          0.1136765256524086, 0.09232418239116669, -0.04318145290017128,
          0.14867664873600006, 0.0465838648378849, 0.07150275260210037,
          -0.0011042116675525904, -0.02166016213595867, -0.17294245958328247,
          0.1057799682021141, 0.047059811651706696, -0.08412550389766693,
          -0.09717855602502823, -0.08609994500875473, 0.12205357849597931,
          0.018563035875558853, 0.15715478360652924, -0.03903543949127197,
          0.0955415666103363, 0.14806757867336273, 0.08325055241584778,
          0.11068981140851974, -0.03550560772418976, 0.17418833076953888,
          0.12231344729661942, 0.11535248160362244, 0.18126963078975677,
          -0.06565976142883301, 0.055937811732292175, 0.16543950140476227,
          -0.18129156529903412, -0.03934758901596069, 0.0972430408000946,
          0.17244817316532135, 0.18791767954826355, -0.07716717571020126,
          0.028289232403039932, -0.1588667780160904, -0.004908003844320774,
          0.0973915234208107, 0.02689579501748085, -0.12948082387447357,
          -0.17680616676807404, 0.04155726358294487, -0.02910703793168068,
          -0.0015054886462166905, -0.07813092321157455, -0.019378963857889175,
          0.16522078216075897, -0.13587655127048492, 0.08545766025781631,
          -0.03158281743526459, -0.014224948361515999, -0.08182210475206375,
          0.11127173900604248, -0.14437657594680786, -0.10589351505041122,
          -0.00012322451220825315, -0.12063181400299072, -0.18328848481178284,
          -0.04386020451784134, 0.0020163177978247404, 0.1358027458190918,
          0.013792223297059536, -0.18664690852165222, 0.020099328830838203,
          0.0822119265794754, 0.000516233267262578, 0.13019481301307678,
          0.033111102879047394, 0.14918464422225952, -0.024580804631114006,
          -0.18463234603405, 0.017358409240841866, 0.06625749170780182,
          -0.17200472950935364, 0.03421739116311073, -0.10449016094207764,
          0.011742529459297657, 0.09723591059446335, -0.0016599668888375163,
          0.17034173011779785, 0.060035340487957, -0.11888574063777924,
          0.008854132145643234, -0.019019154831767082, -0.1434199959039688,
          0.008797118440270424, -0.17388266324996948, 0.08645416051149368,
          0.16624248027801514, 0.19374199211597443, -0.1605994999408722,
          -0.030386431142687798, 0.078525610268116, 0.07071702182292938,
          -0.05225283280014992, 0.11324962228536606, -0.15791389346122742,
          0.07823166251182556, 0.1337796002626419, -0.12985746562480927,
          0.028533559292554855, -0.16092704236507416, 0.0038371616974473,
          0.10561266541481018, -0.11869485676288605, -0.1833273470401764,
          0.08065343648195267, 0.03144768252968788, 0.1170627549290657,
          -0.03507428616285324, 0.056491535156965256, -0.1591312289237976,
          0.07143738865852356, -0.07175518572330475, -0.1369744837284088,
          -0.15563836693763733, 0.010566748678684235, 0.16900821030139923,
          -0.021728571504354477, -0.07187351584434509, 0.017890166491270065,
          -0.11412867158651352, 0.03857877850532532, 0.1584196537733078,
          -0.020147496834397316, 0.08780951052904129, -0.12401755899190903,
          -0.11464452743530273, -0.11059362441301346, -0.040171489119529724,
          -0.07260319590568542, -0.09514696896076202, -0.07542401552200317,
          0.12879601120948792, -0.034262288361787796, 0.01996804215013981,
          0.055258430540561676, 0.14664913713932037, 0.05066509172320366,
          0.04017544910311699, 0.05301643908023834, 0.17690150439739227,
          -0.1411333531141281, -0.025843746960163116, 0.06601611524820328,
          -0.0855708122253418, 0.06386697292327881, -0.12013587355613708,
          -0.0900634378194809, 0.06728128343820572, 0.15200971066951752,
          -0.06119257211685181, 0.018140004947781563, 0.166236013174057,
          0.15463154017925262, 0.07347197830677032, 0.023359350860118866,
          -0.0508246012032032, -0.10888529568910599, -0.149036705493927,
          -0.11188548058271408, 0.1342618316411972, 0.057425763458013535,
          -0.048895057290792465, -0.07161294668912888, 0.010496752336621284,
          0.040271300822496414, -0.09686500579118729, -0.13221466541290283,
          0.16615915298461914, 0.1201319471001625, 0.11926565319299698,
          -0.1805768758058548, 0.09098163992166519, 0.077933169901371,
          -0.07788042724132538, -0.013969026505947113, -0.18860764801502228,
          0.16079320013523102, 0.1801171451807022, -0.07481591403484344,
          0.1043604165315628, -0.08708342909812927, -0.09992422163486481,
          -0.06862767785787582, 0.15699824690818787, 0.07533326745033264,
          -0.012015759013593197, 0.137732595205307, 0.1401945948600769,
          -0.0017827291740104556, -0.1952606737613678, -0.1653406172990799,
          0.08916197717189789, 0.0572025366127491, -0.005854212678968906,
          0.011472134850919247, 0.18918974697589874, -0.17097817361354828,
          0.0688396692276001, -0.08192556351423264, 0.10368337482213974,
          -0.09330283850431442, -0.024415547028183937, -0.1299087405204773,
          0.1383805274963379, -0.10613123327493668, -0.09339746087789536,
          -0.06738670915365219, -0.1101483479142189, -0.029226722195744514,
          0.16314050555229187, 0.0763794556260109, -0.1692943125963211,
          0.1264306902885437, -0.052229225635528564, -0.18622685968875885,
          0.032238516956567764, 0.03485468402504921, 0.13373589515686035,
          -0.008558597415685654, 0.11320426315069199, 0.19303172826766968,
          -0.035235967487096786, 0.034547124058008194, -0.05173748359084129,
          -0.1751021444797516, -0.012559006921947002, 0.14112670719623566,
          -0.017457222566008568, -0.14881251752376556, -0.11793050915002823,
          0.06638354808092117, -0.010738074779510498, 0.09368830174207687,
          -0.038948483765125275, -0.04162801802158356, 0.01590057834982872,
          0.15978103876113892, 0.10101455450057983, -0.033763736486434937,
          0.1179475337266922, -0.1671706736087799, -0.019665680825710297,
          0.09472240507602692, 0.1549942046403885, 0.012210658751428127,
          0.14454235136508942, -0.051930684596300125, 0.19274160265922546,
          0.03225824236869812, 0.06291627138853073, -0.13105835020542145,
          -0.14032244682312012, -0.1451285481452942, 0.010316058062016964,
          -0.18107199668884277, -0.1591232568025589, -0.13974951207637787,
          0.1569978892803192, -0.18550075590610504, 0.18265146017074585,
          -0.02388720028102398, -0.13647766411304474, -0.17714658379554749,
          0.16996213793754578, -0.14335884153842926, 0.08995279669761658,
          0.16857922077178955, -0.005241983570158482, 0.14091472327709198,
          -0.012708990834653378, 0.11846701800823212, -0.07480601221323013,
          -0.16056612133979797, 0.12589888274669647, -0.05937280133366585,
          0.07564816623926163, -0.07702472060918808, 0.05708812177181244,
          -0.16903051733970642, 0.08258739113807678, -0.07112259417772293,
          -0.004156150389462709, -0.14279481768608093, 0.1455511748790741,
          0.16458497941493988, 0.19690266251564026, 0.18467137217521667,
          0.13629508018493652, 0.03421194478869438, 0.07914038747549057,
          -0.062464017421007156, -0.01824530027806759, 0.08402015268802643,
          -0.11223223060369492, 0.016606062650680542, -0.08411736786365509,
          -0.0024661680217832327, 0.02920476719737053, 0.10994821041822433,
          -0.12999647855758667, 0.14485469460487366, -0.08837378770112991,
          0.19732192158699036, -0.12856623530387878, 0.13379330933094025,
          0.17287547886371613, -0.040005553513765335, -0.12028820067644119,
          -0.017939751967787743, -0.09683407098054886, -0.021126557141542435,
          -0.06622733920812607, -0.030340543016791344, 0.007980557158589363,
          -0.1778271645307541, 0.15476854145526886, 0.11297683417797089,
          -0.07722363620996475, -0.1629558503627777, -0.12665800750255585,
          0.18128782510757446, -0.005013731308281422, -0.059521593153476715,
          0.07903838157653809, 0.11593008041381836, 0.0880335345864296,
          0.1257587969303131, -0.167355477809906, -0.03600737079977989,
          0.014810034073889256, 0.07757105678319931, -0.17241159081459045,
          -0.025125466287136078, 0.17732909321784973, -0.15089845657348633,
          -0.17232196033000946, -0.008363569155335426, 0.02165081910789013,
          0.19189630448818207, -0.022329043596982956, 0.012240576557815075,
          -0.04172999784350395, 0.10275846719741821, -0.059614941477775574,
          -0.03389379009604454, 0.08523350954055786, 0.10207561403512955,
          -0.07368785887956619, -0.19360630214214325, 0.015691298991441727,
          -0.1746261715888977, -0.045712631195783615, -0.03870869055390358,
          -0.15864095091819763, -0.1753079742193222, -0.0936613604426384,
          0.03149985522031784, 0.08719150722026825, -0.18521498143672943,
          0.021052902564406395, -0.18391259014606476, -0.10767368227243423,
          -0.18216575682163239, 0.16714543104171753, -0.00421715434640646,
          -0.1074671819806099, -0.06696829199790955, 0.08731084316968918,
          -0.13988365232944489, 0.0024273416493088007, 0.11548808217048645,
          0.10648612678050995, 0.04935763403773308, -0.030560791492462158,
          0.16142882406711578, -0.0862928181886673, 0.1683424711227417,
          -0.15016940236091614, 0.13554053008556366, 0.049002282321453094,
          -0.06198345497250557, 0.19352304935455322, 0.07708790898323059,
          0.00008517913374816999, -0.00511073786765337, -0.041906747967004776,
          0.056363727897405624, 0.13509900867938995, -0.12120069563388824,
          0.1979314684867859, -0.17244195938110352, 0.14398108422756195,
          -0.0826442614197731, 0.022845743224024773, 0.023423461243510246,
          0.0396299734711647, -0.13205748796463013, 0.16681146621704102,
          -0.053937431424856186, 0.13216155767440796, -0.10509944707155228,
          0.09833403676748276, -0.02600429579615593, 0.10749831050634384,
          0.02993207611143589, 0.14454367756843567, 0.006797135341912508,
          0.15687602758407593, 0.1529323309659958, 0.058748677372932434,
          -0.186117485165596, 0.07110914587974548, -0.14613789319992065,
          0.1737445443868637, 0.07111240923404694, 0.15123841166496277,
          0.03146094083786011, -0.1531275510787964, -0.12241935729980469,
          0.10998706519603729, 0.12459799647331238, 0.18825656175613403,
          0.0926133319735527, -0.18556711077690125, -0.07859368622303009,
          0.04586242884397507, -0.16110627353191376, 0.16069446504116058,
          -0.04236498102545738, 0.033819474279880524, -0.044204678386449814,
          0.0981774628162384, 0.19299542903900146, 0.09761634469032288,
          -0.14457732439041138, -0.1738542765378952, -0.02572345919907093,
          -0.1197623610496521, 0.14657430350780487, -0.10690682381391525,
          -0.15814663469791412, 0.05612492933869362, 0.016457898542284966,
          0.18310390412807465, -0.01965058408677578, 0.17939646542072296,
          0.101439468562603, -0.07968984544277191, -0.11936759948730469,
          -0.08278296142816544, 0.05279412493109703, -0.10435643047094345,
          -0.19189241528511047, 0.1778315156698227, -0.09670882672071457,
          0.19506429135799408, 0.08740577846765518, -0.01500734779983759,
          0.19667541980743408, 0.17594558000564575, -0.007397194858640432,
          0.13959428668022156, 0.01803484931588173, -0.1527189016342163,
          0.09414519369602203, 0.15142691135406494, 0.048360902816057205,
          -0.1722094714641571, -0.07102847844362259, 0.09551344811916351,
          -0.05503293499350548, -0.1365049034357071, 0.04652441293001175,
          -0.19347961246967316, 0.14810411632061005, -0.09666340798139572,
          -0.07302864640951157, 0.19254754483699799, 0.02947951667010784,
          0.011400473304092884, -0.11752764880657196, -0.037128347903490067,
          0.03364190086722374, 0.027723876759409904, -0.15153269469738007,
          0.15254013240337372, -0.14499551057815552, 0.02823638916015625,
          0.10374787449836731, 0.07067496329545975, 0.04019972309470177,
          0.16209998726844788, 0.00758481165394187, 0.01780165545642376,
          -0.18891432881355286, -0.07749185711145401, 0.1587866246700287,
          0.01153903640806675, -0.006984693463891745, 0.04446959123015404,
          -0.10437629371881485, 0.02597137726843357, 0.04379420727491379,
          0.0117788752540946, -0.13869445025920868, 0.06977859884500504,
          -0.004367126617580652, -0.052993953227996826, 0.022195300087332726,
          -0.04134543612599373, -0.08206779509782791, 0.047354452311992645,
          0.056384433060884476, -0.11708230525255203, -0.026357201859354973,
          0.030115410685539246, -0.12521708011627197, 0.16930954158306122,
          -0.08288638293743134, -0.12542299926280975, 0.01667192205786705,
          0.15370473265647888, -0.053671203553676605, 0.2024049013853073,
          0.04521797224879265, 0.14958027005195618, -0.19324377179145813,
          -0.033506475389003754, 0.05863584205508232, 0.2023245394229889,
          -0.1533164083957672, -0.06612856686115265, 0.1679220199584961,
          0.1285809725522995, -0.13324911892414093, -0.1728065013885498,
          -0.18574024736881256, -0.13236142694950104, -0.00987135898321867,
          0.19133484363555908, -0.025281891226768494, -0.11021100729703903,
          0.10690368711948395, -0.14591656625270844, 0.18389227986335754,
          -0.0841459259390831, 0.07896815240383148, -0.17750346660614014,
          0.038993965834379196, -0.045954734086990356, 0.07860177010297775,
          -0.17411167919635773, 0.012619116343557835, -0.09740757197141647,
          -0.06021752953529358, 0.043219178915023804, -0.15422946214675903,
          -0.09783751517534256, 0.10387129336595535, 0.03952368348836899,
          0.1842326819896698, -0.08653628081083298, -0.12364673614501953,
          0.021363379433751106, 0.1490423083305359, -0.09519428014755249,
          0.03868762403726578, -0.19062334299087524, -0.12130875140428543,
          0.11447995156049728, 0.11390414088964462, 0.08475387841463089,
          0.060906656086444855, -0.13996417820453644, -0.1827729493379593,
          -0.14169278740882874, -0.05830369144678116, 0.02481972798705101,
          0.050836388021707535, 0.13285359740257263, 0.006279724650084972,
          -0.1715376377105713, -0.16015559434890747, -0.07269565761089325,
          0.10097910463809967, -0.11272339522838593, 0.056935522705316544,
          0.024074554443359375, -0.17537961900234222, 0.13370183110237122,
          0.0059720491990447044, 0.18006263673305511, 0.1285216361284256,
          -0.02982410602271557, -0.09710028767585754, -0.030438639223575592,
          -0.1663207858800888, 0.05814815312623978, 0.13629452884197235,
          0.1951066553592682, 0.1591803878545761, -0.16375984251499176,
          -0.004143970552831888, 0.19542446732521057, 0.043278004974126816,
          -0.19502276182174683, 0.13443467020988464, -0.12846744060516357,
          0.11211340874433517, 0.1745801717042923, -0.10555799305438995,
          -0.16536568105220795, 0.17503094673156738, 0.03276725858449936,
          0.07820124179124832, 0.15790842473506927, -0.09937985986471176,
          0.18409882485866547, 0.2013760656118393, 0.1823556274175644,
          -0.048149172216653824, -0.1798129379749298, 0.05419524013996124,
          -0.15008533000946045, -0.1323215812444687, 0.11928117275238037,
          0.002239718334749341, -0.17238083481788635, 0.07028026133775711,
          0.09343470633029938, 0.05186820402741432, -0.043482519686222076,
          0.2472543716430664, 0.1757643073797226, 0.2529798746109009,
          0.3850492537021637, 0.3191918432712555, 0.3345705270767212,
          0.2994149625301361, 0.3710770905017853, 0.38571301102638245,
          0.34596186876296997, 0.181719109416008, 0.3061473071575165,
          0.3705340623855591, 0.30354565382003784, 0.2208651602268219,
          0.3721318244934082, 0.15541201829910278, 0.2355732023715973,
          0.4145708680152893, 0.22016744315624237, 0.2449301928281784,
          0.32476842403411865, 0.2759974002838135, 0.2616675794124603,
          0.20898933708667755, 0.09986438602209091, 0.3777301013469696,
          0.18437044322490692, 0.15156014263629913, 0.2229306548833847,
          0.1790027618408203, 0.11954154819250107, 0.3068351447582245,
          0.06125171482563019, 0.3304617702960968, 0.13696013391017914,
          0.22149139642715454, 0.046857405453920364, 0.19933344423770905,
          0.25960710644721985, 0.2572365403175354, 0.13007105886936188,
          0.003982765134423971, 0.2736765146255493, 0.04926830530166626,
          0.22734810411930084, 0.2254747599363327, 0.2366994023323059,
          0.17403268814086914, -0.06516939401626587, 0.04769033193588257,
          0.22602444887161255, 0.06289102137088776, 0.26083388924598694,
          0.23085671663284302, 0.13335928320884705, 0.12176459282636642,
          0.2562553584575653, 0.18868501484394073, 0.23255392909049988,
          0.08202294260263443, 0.1307932436466217, 0.00563588785007596,
          -0.0470040924847126, 0.09997639805078506, 0.08336236327886581,
          0.02820594236254692, 0.21091456711292267, 0.16438034176826477,
          0.14739301800727844, 0.19281832873821259, 0.14209868013858795,
          0.1838100254535675, 0.16434180736541748, 0.2202952355146408,
          0.29173609614372253, 0.20973153412342072, 0.10440556704998016,
          0.20785866677761078, 0.032733384519815445, 0.12369164824485779,
          0.2796595096588135, 0.2123844176530838, 0.07849350571632385,
          0.057464566081762314, 0.050099823623895645, 0.01987127773463726,
          0.22529718279838562, 0.14569233357906342, 0.12043587863445282,
          0.05733374133706093, 0.15214261412620544, 0.3075450658798218,
          -0.026781665161252022, 0.1152210608124733, -0.03182253986597061,
          0.06652700155973434, 0.060686226934194565, 0.006669873371720314,
          0.042389072477817535, 0.22617314755916595, 0.1576484590768814,
          -0.07027767598628998, 0.155025452375412, 0.23187236487865448,
          0.051682520657777786, 0.21834267675876617, 0.238241508603096,
          0.19337166845798492, 0.012969136238098145, -0.07403263449668884,
          0.22538897395133972, 0.05779542773962021, 0.01786719635128975,
          0.09291671216487885, 0.15678516030311584, 0.10214699059724808,
          0.1508873999118805, -0.01935414783656597, 0.04976630210876465,
          -0.11201103776693344, -0.04537098482251167, 0.09691363573074341,
          0.18345455825328827, -0.003445881186053157, 0.008154659532010555,
          0.17970603704452515, 0.11400479078292847, 0.13151204586029053,
          0.12230705469846725, 0.1797175407409668, -0.02523556537926197,
          0.049850404262542725, -0.06205831468105316, 0.10007217526435852,
          -0.007586163002997637, -0.04306405410170555, 0.23329682648181915,
          0.22078487277030945, 0.010816291905939579, -0.07351645827293396,
          0.18291696906089783, -0.11221912503242493, 0.15042750537395477,
          0.13877390325069427, 0.16881611943244934, 0.19123320281505585,
          0.01349407434463501, 0.1575472056865692, -0.117015041410923,
          0.12159164994955063, -0.05637349188327789, -0.06518968939781189,
          -0.010713914409279823, -0.03272746503353119, 0.0025474759750068188,
          0.13844655454158783, -0.08153983950614929, 0.09590204060077667,
          -0.01843900792300701, 0.23297999799251556, 0.14633707702159882,
          0.12122821807861328, -0.03501368686556816, 0.04866338148713112,
          -0.07917463034391403, 0.012125142849981785, 0.26722458004951477,
          0.2370571792125702, 0.04316404461860657, -0.10713610053062439,
          0.19250263273715973, -0.039724502712488174, -0.0172580573707819,
          0.17204274237155914, -0.11951840668916702, -0.014423960819840431,
          0.16647829115390778, 0.0003649668942671269, -0.06459684669971466,
          0.13198734819889069, -0.08185476064682007, 0.2252461016178131,
          0.026420434936881065, -0.04446898028254509, -0.01511874794960022,
          -0.03149201720952988, 0.05683525279164314, 0.10937722027301788,
          0.04281967505812645, -0.0326642245054245, 0.2073097676038742,
          0.1235882118344307, -0.05139544606208801, 0.07770200818777084,
          0.12065427005290985, -0.11221784353256226, 0.08218368142843246,
          -0.03229003772139549, -0.1974295675754547, -0.0361039899289608,
          0.06561414152383804, -0.14375555515289307, 0.10568036139011383,
          0.12426618486642838, -0.03286316245794296, 0.13677605986595154,
          0.17379701137542725, 0.10055655241012573, 0.11632554978132248,
          0.2080235779285431, 0.06402941793203354, 0.12283798307180405,
          -0.029003476724028587, -0.013360372744500637, 0.09498783946037292,
          0.12435798346996307, -0.07979019731283188, -0.07588609308004379,
          0.15925094485282898, 0.1538791060447693, -0.04471684992313385,
          0.09464072436094284, -0.023293986916542053, 0.023903438821434975,
          0.13458392024040222, -0.11704905331134796, -0.05194369703531265,
          0.06688763946294785, -0.03319277986884117, 0.19806627929210663,
          0.08076121658086777, -0.1208939179778099, 0.12162076681852341,
          0.18068908154964447, -0.17955145239830017, 0.05204944685101509,
          0.1320691555738449, -0.10980913043022156, -0.10561998188495636,
          -0.11318716406822205, 0.09850477427244186, -0.026385290548205376,
          -0.0730023980140686, -0.10603678226470947, -0.11637791991233826,
          0.10462025552988052, 0.03592873737215996, -0.14087770879268646,
          0.14998379349708557, -0.04743011295795441, 0.12344582378864288,
          0.09300856292247772, 0.016463562846183777, -0.050665758550167084,
          0.008616655133664608, -0.15074805915355682, 0.08170578628778458,
          -0.007716379128396511, -0.057395756244659424, 0.05063449591398239,
          -0.06424262374639511, -0.09927574545145035, 0.14874158799648285,
          0.06323221325874329, -0.11134422570466995, 0.11108464747667313,
          -0.048608019948005676, -0.06579125672578812, 0.11674468964338303,
          0.16181854903697968, -0.05590952932834625, 0.19212950766086578,
          -0.02435365505516529, 0.11235161870718002, -0.05806099250912666,
          -0.07231882214546204, -0.11210662871599197, -0.012055895291268826,
          -0.008043400011956692, -0.10492626577615738, 0.10252384096384048,
          -0.020461566746234894, 0.09385455399751663, 0.18353888392448425,
          0.0956229716539383, 0.17115458846092224, 0.17055201530456543,
          0.15721094608306885, -0.15150786936283112, 0.006547559984028339,
          -0.19258557260036469, -0.12191662937402725, -0.0519227460026741,
          -0.10757461190223694, 0.09829081594944, -0.060637928545475006,
          -0.13475526869297028, 0.05440286919474602, -0.1495721936225891,
          -0.16832712292671204, 0.13785243034362793, 0.02516367845237255,
          0.03491915762424469, 0.1540064811706543, 0.05539829656481743,
          -0.1765298694372177, -0.17276471853256226, -0.0751497894525528,
          0.05323096364736557, 0.03497793897986412, -0.10623322427272797,
          -0.13759160041809082, 0.07338841259479523, -0.012052543461322784,
          0.17044559121131897, 0.09571380168199539, -0.09327737241983414,
          0.18579226732254028, -0.15332640707492828, -0.0628732442855835,
          0.05405557155609131, -0.08408805727958679, 0.15369434654712677,
          0.18517445027828217, 0.1129172220826149, -0.07318396121263504,
          -0.07069724053144455, -0.039209991693496704, 0.12051998823881149,
          0.19786116480827332, 0.169153094291687, 0.10080888867378235,
          0.1769769936800003, 0.07039737701416016, -0.13845351338386536,
          0.06198687478899956, 0.1260128766298294, -0.07178861647844315,
          -0.03297300264239311, 0.11485280841588974, -0.1754479855298996,
          -0.026721248403191566, 0.04474189877510071, 0.04187741130590439,
          0.19148942828178406, -0.13280589878559113, -0.033973854035139084,
          -0.14998675882816315, -0.16607384383678436, -0.13017429411411285,
          0.029019277542829514, 0.06541135162115097, 0.1704493910074234,
          -0.0827111080288887, -0.0521911196410656, -0.04071784391999245,
          -0.12392903119325638, 0.11310695111751556, 0.1220269650220871,
          0.17912019789218903, -0.15590550005435944, -0.10201180726289749,
          0.003914808854460716, 0.17436464130878448, 0.10088785737752914,
          0.11627219617366791, 0.12337800115346909, -0.015086857602000237,
          -0.10875008255243301, -0.11295211315155029, -0.013552871532738209,
          0.032220494002103806, -0.06644473224878311, 0.11774881929159164,
          -0.03665413707494736, 0.12726303935050964, 0.00877322442829609,
          0.14925146102905273, -0.17428497970104218, -0.01275621447712183,
          0.12347397953271866, -0.016725581139326096, -0.003070622682571411,
          0.023610441014170647, 0.0033945958130061626, 0.07014492899179459,
          0.17832928895950317, 0.05280479043722153, -0.054723091423511505,
          0.0885995551943779, -0.004397417418658733, 0.11830363422632217,
          -0.01774805784225464, 0.16782955825328827, -0.12861472368240356,
          0.08608963340520859, -0.013810263015329838, 0.014059940353035927,
          -0.17532573640346527, 0.10758531838655472, 0.15463988482952118,
          0.14001093804836273, -0.16749534010887146, -0.011404132470488548,
          0.019273994490504265, 0.16939015686511993, 0.024625318124890327,
          -0.17863307893276215, 0.1604667603969574, 0.09622394293546677,
          -0.16630537807941437, 0.12639664113521576, -0.06535398960113525,
          0.1626681536436081, 0.02629741281270981, -0.17713463306427002,
          -0.11832839995622635, 0.11145281046628952, 0.007549461908638477,
          -0.08826553821563721, 0.05710040405392647, 0.15982338786125183,
          0.06389664858579636, 0.05027100443840027, -0.04144776985049248,
          -0.04401129484176636, -0.011043829843401909, 0.1307780146598816,
          -0.15815940499305725, -0.19540144503116608, 0.06391381472349167,
          0.16019101440906525, -0.16030685603618622, 0.1276433765888214,
          0.1051378846168518, 0.17362305521965027, 0.050702497363090515,
          0.09289140999317169, -0.10443083196878433, -0.015504219569265842,
          0.10981082171201706, -0.12275748699903488, -0.05928921326994896,
          0.19539466500282288, -0.09488183259963989, -0.09747351706027985,
          -0.09370668232440948, -0.1285850703716278, 0.18952389061450958,
          -0.14591266214847565, -0.02665068581700325, 0.04955630004405975,
          0.1374058872461319, -0.031341489404439926, 0.03929663822054863,
          -0.03184713050723076, -0.18112118542194366, 0.1835578829050064,
          0.03325045108795166, -0.1203262060880661, -0.006583245005458593,
          0.0896383672952652, -0.05309750512242317, 0.13333089649677277,
          -0.09172745794057846, 0.05894305557012558, -0.04783742129802704,
          0.02079988643527031, 0.00424681231379509, -0.1558339148759842,
          -0.09208317846059799, -0.08612152189016342, -0.021902354434132576,
          -0.115542471408844, 0.14144684374332428, -0.10394328832626343,
          0.04597723111510277, -0.10808878391981125, -0.05737140029668808,
          -0.16436663269996643, -0.14597879350185394, -0.11059438437223434,
          0.01678435318171978, -0.01561033260077238, 0.02891242317855358,
          0.18100059032440186, -0.11204475164413452, -0.15771366655826569,
          0.015139234252274036, -0.0765015035867691, 0.02482699230313301,
          0.11377690732479095, 0.0927102267742157, 0.05633591115474701,
          -0.13491860032081604, 0.0742168202996254, 0.1191248968243599,
          -0.16712412238121033, 0.008051764219999313, 0.1338982731103897,
          0.05416063964366913, -0.043412946164608, -0.0048489440232515335,
          -0.19262772798538208, -0.1711612045764923, 0.16940118372440338,
          0.016107244417071342, -0.0972931906580925, -0.15166142582893372,
          -0.14098350703716278, -0.058774206787347794, 0.09830611944198608,
          0.08358105272054672, 0.10747773945331573, 0.15405167639255524,
          -0.07391402870416641, -0.07805415242910385, -0.13479988276958466,
          0.035980142652988434, 0.03781022131443024, 0.12407714873552322,
          0.15264086425304413, -0.19032275676727295, -0.18533320724964142,
          0.0982617437839508, -0.0445791594684124, 0.1776638776063919,
          0.00649519357830286, 0.18730610609054565, -0.043935809284448624,
          0.1051642969250679, -0.08967781066894531, -0.06084063649177551,
          -0.13757842779159546, -0.10576499998569489, 0.020234553143382072,
          0.02734508365392685, -0.07243692874908447, 0.07708455622196198,
          -0.004681118298321962, -0.1363670527935028, 0.15469680726528168,
          0.06926752626895905, -0.030103381723165512, 0.17855343222618103,
          0.1437835395336151, -0.051480744034051895, -0.09339555352926254,
          0.037075623869895935, 0.1581229418516159, 0.1293884813785553,
          0.011727601289749146, 0.08543261140584946, -0.11962281167507172,
          -0.11528109014034271, -0.049783989787101746, 0.14987172186374664,
          0.1610322743654251, 0.11670122295618057, -0.037071291357278824,
          0.10090012103319168, -0.14693310856819153, -0.017857640981674194,
          0.18419021368026733, -0.011430580168962479, 0.16941098868846893,
          -0.0008441713289357722, -0.1296159029006958, -0.09325239807367325,
          0.0428033284842968, 0.15694890916347504, 0.11353462189435959,
          -0.03759996220469475, 0.13858191668987274, -0.10993856936693192,
          0.0037946777883917093, -0.07139339298009872, 0.007865766994655132,
          0.07772564142942429, -0.08564683794975281, 0.00031419433071278036,
          0.05120725557208061, 0.14916463196277618, -0.14213326573371887,
          -0.05712633207440376, 0.004426048137247562, 0.0796281024813652,
          0.08698021620512009, -0.009704971686005592, 0.06537753343582153,
          0.000503248127643019, -0.15624266862869263, 0.06418395787477493,
          0.10149691998958588, 0.18544471263885498, 0.1733682006597519,
          -0.13378329575061798, -0.027989432215690613, -0.16487210988998413,
          -0.14150413870811462, -0.16403955221176147, 0.13880078494548798,
          -0.08529543876647949, -0.03496527299284935, -0.0860200971364975,
          0.0442362055182457, -0.16091838479042053, -0.052386574447155,
          0.09308519214391708, -0.01883918046951294, 0.04153602942824364,
          -0.121444471180439, -0.034792523831129074, -0.09848371148109436,
          0.011213100515305996, -0.156458780169487, -0.04737861081957817,
          0.15974466502666473, -0.15236178040504456, -0.17705294489860535,
          0.13048098981380463, 0.027402250096201897, 0.11368875950574875,
          0.13075953722000122, -0.1183813288807869, 0.10355114191770554,
          -0.12951502203941345, 0.12348049879074097, 0.13866154849529266,
          0.19061726331710815, 0.06205755099654198, -0.1749207228422165,
          0.18351687490940094, -0.025951072573661804, -0.020531844347715378,
          -0.09464412927627563, -0.06068684533238411, 0.14238077402114868,
          0.002916899509727955, 0.15058961510658264, -0.15368583798408508,
          0.08576774597167969, 0.046250082552433014, 0.16081181168556213,
          0.10249029099941254, 0.15482133626937866, -0.06711854040622711,
          -0.16979815065860748, 0.04909889027476311, 0.01991564966738224,
          -0.16812045872211456, 0.06045253202319145, -0.12503746151924133,
          0.14048613607883453, 0.14476588368415833, -0.06874080747365952,
          -0.0817401111125946, -0.02515817992389202, -0.09346237033605576,
          -0.09484131634235382, -0.05782856419682503, 0.02151317335665226,
          -0.13137763738632202, -0.13795463740825653, 0.14289888739585876,
          0.06557627022266388, -0.10572712868452072, 0.119561567902565,
          -0.0549168735742569, -0.17635749280452728, -0.15313492715358734,
          -0.08522841334342957, 0.030250653624534607, 0.12185792624950409,
          0.15844321250915527, -0.0773821547627449, -0.04349544271826744,
          -0.008017008192837238, -0.07372251152992249, -0.10659366101026535,
          0.0310052577406168, -0.1806076318025589, 0.19317995011806488,
          -0.16056060791015625, 0.08151374012231827, 0.10979358106851578,
          -0.10099779814481735, -0.1330203264951706, -0.0928434208035469,
          0.07981795817613602, 0.05072995647788048, -0.06243269145488739,
          -0.030541986227035522, 0.1583973467350006, 0.02542581409215927,
          0.1834128051996231, -0.0868811085820198, 0.1807539165019989,
          -0.09691094607114792, 0.04111478105187416, 0.1089404970407486,
          -0.05540882423520088, 0.031629547476768494, 0.0501616932451725,
          -0.1287676990032196, 0.04289715737104416, 0.1633887141942978,
          0.17677290737628937, 0.18235982954502106, 0.07379145920276642,
          -0.09387245029211044, -0.10161992162466049, 0.14445911347866058,
          -0.015450694598257542, 0.015215910971164703, -0.1579934060573578,
          0.11318498104810715, -0.025381386280059814, -0.14951691031455994,
          0.08428092300891876, -0.1683518886566162, -0.1671726107597351,
          0.13775429129600525, 0.0179919321089983, -0.12372149527072906,
          -0.06210649013519287, -0.08697754889726639, -0.16900354623794556,
          0.017883868888020515, -0.13882942497730255, 0.0462026447057724,
          0.1455679088830948, 0.09433629363775253, 0.006661152001470327,
          -0.13801629841327667, 0.10277574509382248, 0.15524455904960632,
          -0.165876567363739, 0.1420578807592392, -0.09466610848903656,
          0.09894730895757675, 0.18268194794654846, -0.08054788410663605,
          -0.15524046123027802, 0.04940230771899223, 0.11282757669687271,
          0.18180949985980988, 0.16377882659435272, 0.022468937560915947,
          0.13025566935539246, -0.05664941668510437, -0.16204972565174103,
          -0.1412658542394638, 0.18589255213737488, -0.15469853579998016,
          0.04030483216047287, -0.1708284169435501, -0.013382809236645699,
          0.1416643261909485, -0.0568232536315918, -0.10465934872627258,
          0.1529262363910675, 0.008965540677309036, 0.09205982834100723,
          -0.12908324599266052, -0.11416026949882507, 0.10088665038347244,
          0.11745067685842514, -0.15108777582645416, 0.1362767219543457,
          0.00832317117601633, 0.017134597525000572, -0.035931531339883804,
          -0.1529177874326706, 0.12297593057155609, -0.13818074762821198,
          0.0019138830248266459, 0.0176071934401989, -0.02612660638988018,
          -0.19354359805583954, -0.07803608477115631, -0.11425108462572098,
          -0.02511071413755417, -0.1061001718044281, -0.0457170233130455,
          0.13914139568805695, 0.02706737630069256, 0.07465101033449173,
          -0.01469688955694437, -0.18095645308494568, -0.077736996114254,
          0.034369755536317825, 0.1719081699848175, 0.13384976983070374,
          0.14069658517837524, 0.09458379447460175, -0.14399829506874084,
          -0.157083198428154, -0.16129657626152039, 0.1494157463312149,
          -0.020162655040621758, -0.18595395982265472, 0.08593237400054932,
          -0.17953135073184967, -0.03752932325005531, -0.11816335469484329,
          -0.20325078070163727, 0.13978663086891174, 0.15439586341381073,
          0.15886367857456207, 0.14189594984054565, -0.14490994811058044,
          0.016194719821214676, -0.13983353972434998, -0.13146759569644928,
          -0.18929171562194824, 0.05648273974657059, 0.013523252680897713,
          0.14809677004814148, -0.03555049002170563, -0.1377527117729187,
          0.023817358538508415, -0.15730881690979004, -0.10020080953836441,
          0.030876893550157547, 0.00353573402389884, -0.020752647891640663,
          0.05689247325062752, 0.01178737822920084, 0.09038621187210083,
          -0.19172626733779907, 0.06678643822669983, -0.011275301687419415,
          0.1321542114019394, 0.17627105116844177, -0.04272745922207832,
          0.16917964816093445, -0.05494765564799309, -0.06145099550485611,
          -0.19187115132808685, -0.05458437278866768, 0.08485695719718933,
          -0.0725073590874672, 0.10432366281747818, 0.12595653533935547,
          0.11601660400629044, -0.14046545326709747, -0.039406485855579376,
          0.018383612856268883, -0.02563289739191532, -0.17822545766830444,
          -0.09686235338449478, -0.13322573900222778, -0.023372473195195198,
          -0.14474554359912872, -0.17485153675079346, -0.06976816803216934,
          0.006391943898051977, -0.14244335889816284, 0.08697616308927536,
          0.0844239890575409, -0.020166922360658646, 0.09585297852754593,
          -0.02444615587592125, 0.07901507616043091, -0.08463878184556961,
          0.11403089016675949, -0.004010316450148821, 0.11651214957237244,
          0.11033834517002106, -0.10729832202196121, -0.08948861807584763,
          -0.15695033967494965, 0.044800128787755966, 0.05159305781126022,
          -0.1417691856622696, 0.18271122872829437, -0.03475353866815567,
          0.07709036767482758, 0.05777532979846001, -0.04655909538269043,
          0.001563661266118288, -0.17583109438419342, 0.1006016954779625,
          0.08255872875452042, 0.0956411063671112, 0.07581204175949097,
          0.06515590846538544, -0.07991422712802887, -0.10023487359285355,
          -0.17998816072940826, -0.13390782475471497, -0.11972645670175552,
          0.11968658864498138, -0.09038731455802917, 0.08578159660100937,
          0.1886672079563141, -0.07413576543331146, -0.15368543565273285,
          0.10077747702598572, -0.13162106275558472, 0.07925999164581299,
          0.11466152966022491, 0.049435485154390335, 0.001592064625583589,
          -0.032182157039642334, -0.17595483362674713, 0.1036735251545906,
          -0.12205664813518524, 0.12201022356748581, 0.13529591262340546,
          -0.1368495374917984, 0.15829800069332123, -0.185099259018898,
          -0.11784308403730392, 0.1495913714170456, 0.05644006282091141,
          0.12651985883712769, 0.09022976458072662, 0.16036643087863922,
          -0.034257274121046066, 0.16885925829410553, 0.08562853932380676,
          0.19113123416900635, -0.1817241609096527, 0.07469464093446732,
          0.1551370769739151, 0.11134229600429535, 0.005134699400514364,
          -0.04057754948735237, -0.11577311903238297, -0.1037333607673645,
          -0.028868000954389572, -0.03576548770070076, -0.15080183744430542,
          0.17454864084720612, -0.09011062234640121, 0.07084997743368149,
          0.012971506454050541, 0.09912458062171936, 0.04482563957571983,
          0.07523132115602493, 0.10779018700122833, 0.110061876475811,
          0.10640331357717514, 0.009608936496078968, -0.19343116879463196,
          0.13865581154823303, -0.06912364810705185, 0.14594539999961853,
          0.11129309982061386, 0.021703291684389114, -0.14840327203273773,
          0.15508288145065308, 0.013995199464261532, -0.12483958899974823,
          0.04469793289899826, -0.020788777619600296, -0.0320119708776474,
          -0.19297419488430023, 0.10334354639053345, -0.1345777064561844,
          -0.12316782772541046, 0.15372006595134735, 0.1265585571527481,
          0.09785984456539154, -0.06485072523355484, -0.006838493514806032,
          -0.06604021042585373, 0.07604162395000458, 0.06194216012954712,
          0.09709329158067703, 0.004044263623654842, 0.1917872428894043,
          0.06255681812763214, -0.14445506036281586, 0.145208477973938,
          -0.00005091706043458544, 0.1681865155696869, -0.06353842467069626,
          0.04226602986454964, -0.03621182590723038, 0.08669406175613403,
          0.14284321665763855, -0.08504119515419006, 0.028026968240737915,
          0.13262830674648285, -0.18641811609268188, -0.07388880848884583,
          -0.13298597931861877, -0.07733387500047684, 0.14066338539123535,
          0.09302130341529846, -0.1145797073841095, -0.10431495308876038,
          -0.14038613438606262, 0.18646611273288727, -0.05345349386334419,
          0.09578016400337219, -0.06474459171295166, -0.09427490830421448,
          0.10064107924699783, -0.058883100748062134, -0.10035873204469681,
          0.009743332862854004, 0.1985238939523697, 0.16484813392162323,
          0.18715360760688782, -0.05926980450749397, -0.06058162823319435,
          -0.01787976734340191, -0.11117198318243027, 0.19333213567733765,
          -0.05452689900994301, 0.07776931673288345, 0.15441617369651794,
          -0.13367678225040436, 0.18706165254116058, 0.03098636493086815,
          0.12520739436149597, 0.022863833233714104, 0.16841377317905426,
          -0.1372205764055252, -0.07733118534088135, 0.009384737350046635,
          0.08222826570272446, -0.03682226687669754, 0.05039707571268082,
          0.0027298203203827143, 0.108396515250206, 0.16851834952831268,
          -0.03108956106007099, -0.15376152098178864, -0.02626906707882881,
          -0.17916150391101837, -0.020494278520345688, 0.08050477504730225,
          -0.13706174492835999, 0.14466777443885803, -0.13240373134613037,
          -0.14527522027492523, -0.03951263427734375, -0.1603725403547287,
          0.17140384018421173, -0.024489331990480423, -0.062049753963947296,
          -0.08190171420574188, 0.11568564176559448, 0.150682270526886,
          -0.07619011402130127, -0.03488287329673767, -0.12904809415340424,
          0.00678001856431365, 0.0984230786561966, 0.18807265162467957,
          0.012861287221312523, -0.1712391972541809, 0.04589036479592323,
          -0.020878063514828682, 0.017204374074935913, -0.1113663762807846,
          -0.10880706459283829, 0.1276845633983612, 0.18984122574329376,
          -0.06647096574306488, 0.0990806370973587, 0.0771927610039711,
          -0.1522049903869629, -0.008596147410571575, 0.05393190681934357,
          0.11413370817899704, -0.09376946836709976, -0.1475687474012375,
          -0.13671942055225372, -0.10221321135759354, -0.1768418699502945,
          0.160444438457489, 0.11885596066713333, -0.1787741631269455,
          0.0027243683580309153, 0.19166387617588043, -0.06579218059778214,
          -0.17490707337856293, 0.08047404140233994, 0.04571469500660896,
          -0.075009286403656, -0.18595050275325775, -0.03379879146814346,
          -0.06347855925559998, -0.07000758498907089, -0.13731969892978668,
          -0.10795708000659943, -0.0903414711356163, -0.17235960066318512,
          -0.04320748150348663, 0.14311066269874573, 0.008656238205730915,
          -0.1379474550485611, 0.15508975088596344, -0.1736139953136444,
          -0.06062721461057663, 0.16955940425395966, 0.06008068844676018,
          0.08879146724939346, -0.02079000137746334, 0.12632419168949127,
          0.0736544206738472, -0.05961863324046135, 0.17560984194278717,
          0.02218974567949772, 0.07138717174530029, -0.18638309836387634,
          0.08220632374286652, 0.10989414155483246, -0.12235620617866516,
          -0.15227828919887543, -0.031071970239281654, -0.08302965015172958,
          -0.06461147218942642, 0.1713731288909912, -0.09873071312904358,
          -0.04572080075740814, 0.08959850668907166, 0.14504535496234894,
          0.07898961007595062, 0.14582067728042603, -0.18929608166217804,
          0.07638927549123764, 0.15101955831050873, 0.05665431171655655,
          -0.061697378754615784, -0.09292762726545334, 0.18709509074687958,
          -0.17742396891117096, 0.18206371366977692, -0.12992438673973083,
          -0.16040979325771332, -0.15700604021549225, -0.036749787628650665,
          0.13369260728359222, 0.041712574660778046, -0.18086859583854675,
          -0.0332520566880703, 0.053451284766197205, 0.0031965419184416533,
          -0.06287555396556854, 0.023515788838267326, 0.11562890559434891,
          -0.04258275404572487, -0.15810975432395935, -0.17000789940357208,
          -0.07355941087007523, 0.16412128508090973, -0.150432750582695,
          0.09240688383579254, 0.08258450031280518, -0.12436092644929886,
          -0.09078096598386765, 0.016936954110860825, -0.06968288868665695,
          0.07206785678863525, 0.038041625171899796, 0.011342854239046574,
          -0.093301922082901, 0.0927746444940567, 0.04742243140935898,
          -0.02746862918138504, 0.11019854247570038, 0.14734609425067902,
          -0.03509190306067467, 0.06713877618312836, 0.10546539723873138,
          0.18635261058807373, 0.13965940475463867, -0.1520403027534485,
          0.03279906138777733, 0.17474254965782166, -0.01618555746972561,
          0.06117253750562668, 0.0009281964739784598, 0.11842121183872223,
          0.09974473714828491, -0.080512635409832, 0.11486254632472992,
          -0.02525973692536354, -0.19602833688259125, -0.16854943335056305,
          0.1811608523130417, 0.15589988231658936, 0.14255879819393158,
          0.038243845105171204, -0.16552194952964783, 0.017609497532248497,
          -0.18317970633506775, -0.1371779441833496, 0.16146819293498993,
          0.172617569565773, -0.08318135887384415, 0.1244991347193718,
          0.17458277940750122, 0.1394142210483551, 0.13194237649440765,
          0.17340964078903198, 0.11214803904294968, -0.10167796164751053,
          0.1534305214881897, 0.11850704997777939, 0.0040701162070035934,
          0.12208031117916107, 0.03881360962986946, 0.11122483760118484,
          -0.027980193495750427, 0.17040102183818817, -0.11214309185743332,
          -0.1571895182132721, -0.0511600524187088, -0.12536831200122833,
          -0.15242774784564972, 0.07769380509853363, -0.1615752875804901,
          0.1634097844362259, -0.031135939061641693, -0.014342776499688625,
          -0.1641940176486969, -0.13345128297805786, -0.06690976768732071,
          -0.016903165727853775, -0.13735893368721008, 0.07985497266054153,
          -0.04490825533866882, 0.00036815638304688036, -0.05972051993012428,
          -0.034498512744903564, 0.19642913341522217, 0.17101338505744934,
          -0.08185509592294693, -0.0029712014365941286, 0.17714335024356842,
          0.10352236032485962, -0.10741201788187027, 0.0518854558467865,
          0.026135992258787155, 0.1897011250257492, 0.16182371973991394,
          0.09639891237020493, -0.18060016632080078, 0.02552320994436741,
          0.16552680730819702, 0.1148175373673439, 0.02212240919470787,
          -0.09792713820934296, -0.03446182608604431, 0.007280594669282436,
          -0.1523052453994751, 0.12331090122461319, 0.1328573226928711,
          -0.06902510672807693, 0.17590411007404327, 0.04169574752449989,
          0.006978766061365604, -0.10275901108980179, -0.18870677053928375,
          -0.1807030737400055, -0.02681199088692665, 0.08243820071220398,
          -0.1031465232372284, -0.15616266429424286, 0.19558635354042053,
          0.015033968724310398, -0.059931833297014236, -0.009988064877688885,
          0.17043252289295197, -0.009186537005007267, -0.13015449047088623,
          0.10667256265878677, -0.09030602872371674, -0.15589222311973572,
          -0.1776316612958908, 0.10189160704612732, -0.13039341568946838,
          0.09013780206441879, -0.052924469113349915, 0.12174121290445328,
          0.09396824240684509, 0.09983068704605103, 0.15981051325798035,
          0.1409125179052353, 0.06573020666837692, 0.09388317167758942,
          -0.07997938245534897, -0.005928208120167255, -0.15602324903011322,
          0.09382456541061401, -0.05747251212596893, -0.12082775682210922,
          0.03709090128540993, 0.19495417177677155, -0.05488760769367218,
          0.051962584257125854, 0.09411925077438354, -0.03504783287644386,
          0.0720485970377922, -0.11895313113927841, 0.1479022353887558,
          0.14353510737419128, 0.010321220383048058, 0.192237988114357,
          -0.12227123230695724, -0.1662006676197052, 0.02578168548643589,
          -0.01880192942917347, 0.16015851497650146, 0.06987263262271881,
          -0.03510909155011177, 0.14089654386043549, 0.08862000703811646,
          0.17039966583251953, 0.15321308374404907, -0.06548730283975601,
          0.17820994555950165, 0.05116269364953041, 0.1671050488948822,
          -0.1787840574979782, 0.012515861541032791, -0.0906941369175911,
          0.1416153907775879, 0.0884728953242302, -0.15849249064922333,
          -0.11348024010658264, -0.017271988093852997, -0.14592909812927246,
          -0.17465709149837494, 0.13810855150222778, -0.1732284426689148,
          0.006319344975054264, -0.03317730128765106, 0.014799151569604874,
          0.1687474250793457, 0.08777472376823425, 0.07002213597297668,
          -0.14131475985050201, -0.17881233990192413, 0.015078749507665634,
          -0.16975709795951843, -0.056001920253038406, -0.13050352036952972,
          0.029411910101771355, -0.011077792383730412, 0.09243886917829514,
          0.12139437347650528, 0.10483252257108688, -0.05423795059323311,
          0.06593037396669388, -0.010307056829333305, -0.039902981370687485,
          0.00021580190514214337, 0.015026832930743694, -0.004920006729662418,
          0.006316778715699911, 0.14923065900802612, 0.07939834147691727,
          -0.14939455687999725, 0.12428289651870728, 0.03716934844851494,
          -0.02229057438671589, -0.18143348395824432, 0.004249909892678261,
          0.004365503787994385, -0.11019972711801529, 0.1258634626865387,
          0.08753053843975067, -0.12824562191963196, 0.060741085559129715,
          0.025330591946840286, -0.007475720252841711, -0.16770990192890167,
          0.11151287704706192, 0.0391128733754158, -0.11700262874364853,
          -0.10786058753728867, 0.12696628272533417, 0.12595170736312866,
          -0.02479291521012783, -0.050732437521219254, 0.1231345608830452,
          -0.07453958690166473, -0.040000397711992264, 0.09655153006315231,
          0.03741120174527168, -0.11585906147956848, 0.12720435857772827,
          -0.17809239029884338, -0.057029467076063156, 0.02588466741144657,
          0.06839992105960846, -0.07817117124795914, -0.15217424929141998,
          -0.1865837574005127, -0.17205820977687836, -0.07484729588031769,
          -0.1393057256937027, -0.08341239392757416, 0.12790793180465698,
          0.1902245432138443, -0.0139645179733634, -0.06110910698771477,
          0.025973154231905937, -0.195375457406044, -0.194455087184906,
          0.06757740676403046, 0.08452761173248291, 0.013994106091558933,
          0.09301427006721497, -0.007279302924871445, -0.005237660836428404,
          0.007448053918778896, 0.11608876287937164, -0.18916521966457367,
          0.11594901233911514, -0.13620127737522125, -0.17798803746700287,
          -0.142342209815979, -0.03217174485325813, 0.05296340584754944,
          0.17625491321086884, 0.024672601372003555, -0.08617372810840607,
          -0.056801289319992065, 0.09265453368425369, 0.18095426261425018,
          0.10729990899562836, 0.1440870314836502, 0.1054401844739914,
          0.046974074095487595, -0.04000606760382652, 0.0017411361914128065,
          -0.11556752771139145, -0.14516647160053253, -0.08292028307914734,
          0.0011543544242158532, -0.033297132700681686, -0.06441851705312729,
          -0.14126701653003693, 0.022341525182127953, -0.16469569504261017,
          0.1298956423997879, -0.0563494972884655, 0.09533585608005524,
          -0.14796805381774902, 0.024260995909571648, 0.05932924523949623,
          0.072660893201828, 0.0033975362312048674, -0.006503255106508732,
          0.1633608490228653, -0.1437506228685379, 0.06132122874259949,
          -0.09982283413410187, 0.17692019045352936, -0.0764310359954834,
          0.14493204653263092, 0.1860947608947754, -0.10867923498153687,
          -0.1419590413570404, -0.1772903949022293, -0.0005999138229526579,
          -0.013577482663094997, 0.15753677487373352, -0.1073220819234848,
          -0.08169638365507126, 0.19704505801200867, 0.024718506261706352,
          -0.10596804320812225, -0.17842808365821838, -0.12102185934782028,
          -0.030292054638266563, -0.14463528990745544, 0.09869618713855743,
          0.047890014946460724, 0.14875401556491852, -0.10971972346305847,
          -0.1536094844341278, -0.0657162293791771, 0.13412408530712128,
          -0.12072969973087311, 0.1904141902923584, 0.17255470156669617,
          -0.15111403167247772, -0.04582931101322174, -0.16130051016807556,
          -0.14607666432857513, 0.0801459327340126, -0.10122185945510864,
          0.07777826488018036, 0.07787276804447174, 0.0538053996860981,
          0.18084093928337097, 0.173071950674057, -0.17431271076202393,
          0.07714702188968658, 0.13033895194530487, -0.03311874717473984,
          0.09248404204845428, -0.1030794233083725, 0.17189699411392212,
          0.1401568353176117, 0.057451799511909485, 0.14964355528354645,
          -0.08284004032611847, -0.14736419916152954, 0.13738645613193512,
          -0.10740768164396286, 0.03449404612183571, 0.09914381057024002,
          0.07140010595321655, -0.0917108878493309, -0.1296527087688446,
          0.14512047171592712, 0.11244066059589386, 0.17517587542533875,
          0.060055267065763474, 0.13910621404647827, -0.05110093951225281,
          0.12619230151176453, -0.03094969317317009, 0.08603125810623169,
          0.06230683997273445, 0.12406019866466522, 0.022906942293047905,
          0.10028363764286041, 0.1748218685388565, 0.1945052593946457,
          0.16537488996982574, -0.029505308717489243, -0.10737677663564682,
          -0.11994901299476624, -0.0962391123175621, -0.027679357677698135,
          0.1878572404384613, 0.14690332114696503, 0.16672547161579132,
          -0.1807173490524292, 0.15874861180782318, 0.11119022965431213,
          0.19620290398597717, 0.02468361333012581, 0.15823504328727722,
          0.17029538750648499, -0.07199239730834961, -0.1611623764038086,
          -0.12451981008052826, 0.1015329584479332, 0.12311265617609024,
          -0.03908298909664154, 0.08012761920690536, -0.13763262331485748,
          0.059035785496234894, -0.028757542371749878, -0.09875960648059845,
          -0.003631142433732748, 0.09318032115697861, 0.12028210610151291,
          -0.012869269587099552, -0.10229922831058502, -0.19216762483119965,
          0.14141173660755157, -0.16417686641216278, -0.18440738320350647,
          0.08278892189264297, -0.06895557790994644, 0.13230952620506287,
          0.008917652070522308, -0.13887305557727814, -0.09609903395175934,
          -0.10066119581460953, 0.1557873785495758, -0.11871764063835144,
          -0.05888975411653519, -0.08860607445240021, 0.003340837312862277,
          0.1728835254907608, -0.008592433296144009, 0.07289928942918777,
          0.1445695161819458, 0.03482196480035782, -0.021033575758337975,
          -0.0373803973197937, -0.18275359272956848, 0.06062447279691696,
          -0.1547173410654068, 0.19071392714977264, 0.009632792323827744,
          0.03029973804950714, -0.1526068150997162, -0.08839128166437149,
          0.1837070882320404, -0.007349744439125061, 0.03190041333436966,
          0.12662364542484283, -0.04904509335756302, -0.10195442289113998,
          0.18135957419872284, -0.1510559618473053, 0.1269265115261078,
          0.08293546736240387, 0.0030500879511237144, 0.10477383434772491,
          0.0520726703107357, -0.1908419132232666, -0.09869513660669327,
          0.18978723883628845, -0.10373862087726593, -0.0036679222248494625,
          -0.030393460765480995, -0.020108181983232498, -0.04597284644842148,
          -0.17447863519191742, -0.17476117610931396, 0.15346014499664307,
          -0.07877014577388763, -0.10879521816968918, -0.17481112480163574,
          -0.07791365683078766, -0.07045497745275497, 0.056171491742134094,
          -0.01474748644977808, 0.1841093897819519, 0.16806887090206146,
          0.06995365023612976, 0.16342249512672424, 0.11602713167667389,
          -0.11637816578149796, -0.021609457209706306, 0.03508429974317551,
          -0.10069143772125244, -0.056500572711229324, 0.14973583817481995,
          -0.17718560993671417, -0.1198330968618393, 0.0792568027973175,
          -0.15646566450595856, -0.020983010530471802, -0.017428474500775337,
          -0.13664285838603973, 0.08376412093639374, 0.07842383533716202,
          -0.03837314993143082, -0.14848512411117554, 0.05568539723753929,
          -0.1251087635755539, -0.04313351958990097, 0.024063730612397194,
          -0.037600044161081314, -0.03282266482710838, -0.020512500777840614,
          -0.13637016713619232, -0.0694761797785759, -0.15164074301719666,
          -0.05259076505899429, 0.13051463663578033, 0.07264463603496552,
          -0.16531403362751007, 0.08129625767469406, 0.15167298913002014,
          0.004157005809247494, -0.06467700004577637, 0.11610537767410278,
          0.09954360127449036, 0.002283432986587286, 0.08140759915113449,
          -0.1468210220336914, -0.06955334544181824, -0.004681600723415613,
          0.11710523068904877, 0.038893021643161774, -0.02863277494907379,
          0.08471902459859848, -0.17950871586799622, 0.15204530954360962,
          0.02939494326710701, 0.01658237911760807, 0.11069898307323456,
          -0.09235084801912308, 0.009577129036188126, -0.16373799741268158,
          0.08754903078079224, -0.09956645965576172, 0.05983095243573189,
          -0.037337109446525574, 0.02850402146577835, -0.17379599809646606,
          0.08450699597597122, -0.17963546514511108, 0.03592663258314133,
          0.002727146726101637, -0.08090052008628845, -0.08905923366546631,
          0.093601293861866, -0.13639195263385773, 0.03175681456923485,
          0.12176531553268433, -0.037363070994615555, 0.047108378261327744,
          0.19152703881263733, 0.14291617274284363, -0.1279718577861786,
          -0.07217612117528915, 0.08398522436618805, -0.17909660935401917,
          -0.004974562209099531, -0.025042660534381866, 0.1605246365070343,
          -0.03842329606413841, 0.04540866240859032, -0.07955790311098099,
          -0.06112620607018471, 0.14929254353046417, 0.018382292240858078,
          0.04048280790448189, 0.007483033463358879, -0.03200989216566086,
          0.07956025749444962, -0.028521157801151276, 0.15078362822532654,
          0.189739391207695, 0.028907788917422295, 0.11930679529905319,
          0.12648823857307434, 0.10074260830879211, -0.10940087586641312,
          0.14594344794750214, 0.005322752054780722, -0.15126974880695343,
          0.15937723219394684, -0.06286164373159409, 0.03950296714901924,
          0.1507163792848587, 0.0009605101658962667, 0.18308936059474945,
          0.18936552107334137, -0.0012727511348202825, 0.12511740624904633,
          -0.10055703669786453, 0.06932277977466583, 0.19138693809509277,
          0.10811595618724823, -0.055509086698293686, 0.12150660157203674,
          -0.19434943795204163, -0.10812311619520187, -0.012863533571362495,
          0.08726778626441956, 0.06677690893411636, -0.09717528522014618,
          -0.08117889612913132, 0.07907774299383163, 0.05079285800457001,
          -0.018534546718001366, 0.04502438008785248, 0.19474193453788757,
          0.04611800238490105, 0.11691801249980927, 0.07301675528287888,
          -0.17084331810474396, -0.08804444223642349, -0.10102327913045883,
          0.14693979918956757, -0.008882635273039341, -0.09848679602146149,
          0.1125747337937355, 0.056261248886585236, 0.15283353626728058,
          -0.023885421454906464, -0.011118678376078606, -0.09145795553922653,
          -0.07090365141630173, 0.15630196034908295, 0.12970644235610962,
          -0.014081841334700584, 0.04536515474319458, 0.1406494826078415,
          -0.07115228474140167, 0.025339877232909203, -0.0144343301653862,
          -0.10704174637794495, 0.14234179258346558, 0.16312791407108307,
          0.07308986783027649, 0.12634891271591187, -0.14593742787837982,
          -0.07028120756149292, -0.02718771994113922, 0.031760022044181824,
          -0.1597791165113449, -0.10211710631847382, 0.013888455927371979,
          0.03633347153663635, 0.18402156233787537, 0.11078019440174103,
          0.14119526743888855, -0.01692444458603859, 0.19912488758563995,
          0.02861657924950123, 0.1796318143606186, 0.025648463517427444,
          -0.10648008435964584, -0.13415582478046417, -0.005530840251594782,
          -0.1523299515247345, 0.0746409147977829, 0.19854526221752167,
          -0.18607701361179352, 0.13489119708538055, -0.14496085047721863,
          -0.0721028670668602, -0.09300297498703003, 0.1090470403432846,
          0.17086301743984222, 0.1940491646528244, 0.19881519675254822,
          -0.049705129116773605, -0.11426788568496704, -0.043281685560941696,
          0.1641596555709839, -0.04449637234210968, 0.04898058623075485,
          0.1353524625301361, -0.0459677018225193, -0.060488153249025345,
          0.06454319506883621, 0.1650301069021225, -0.09773235023021698,
          0.05485493689775467, -0.10079193115234375, 0.08007731288671494,
          -0.15556873381137848, -0.05564918741583824, 0.012293504551053047,
          0.06605386734008789, 0.13492582738399506, -0.08875934034585953,
          0.006997736636549234, 0.12838415801525116, -0.022686133161187172,
          -0.054639142006635666, 0.09694205969572067, 0.07656572759151459,
          -0.18510496616363525, -0.15712930262088776, 0.044857196509838104,
          0.07591009885072708, -0.015414969064295292, 0.10375680029392242,
          -0.0049878014251589775, -0.06606334447860718, 0.1145363450050354,
          -0.010527870617806911, -0.0905262678861618, 0.10762457549571991,
          0.09979121387004852, 0.12423989921808243, -0.12726731598377228,
          0.13849937915802002, -0.15390190482139587, -0.09838531166315079,
          0.16238828003406525, -0.05023655667901039, 0.052311673760414124,
          0.059791240841150284, -0.03552000969648361, 0.11088410019874573,
          -0.06356025487184525, 0.06371895223855972, -0.15299880504608154,
          0.12892258167266846, 0.0026576390955597162, 0.05241566523909569,
          -0.09818483144044876, -0.18161796033382416, 0.1220693290233612,
          -0.17468281090259552, 0.013478249311447144, 0.1464983969926834,
          0.11867999285459518, -0.0832512378692627, -0.12780079245567322,
          0.09101980179548264, 0.14537303149700165, -0.05742791295051575,
          -0.014501500874757767, -0.14414529502391815, 0.1558191031217575,
          -0.0827539935708046, -0.011254859156906605, 0.029302090406417847,
          0.06200891360640526, 0.1050262302160263, 0.11340369284152985,
          -0.17884768545627594, -0.0318618081510067, -0.06839549541473389,
          0.13445425033569336, 0.1896047443151474, -0.18679945170879364,
          -0.11026156693696976, -0.027478333562612534, 0.08137936145067215,
          -0.05864299461245537, 0.042624231427907944, -0.09285464137792587,
          -0.005645034834742546, -0.1173415258526802, -0.03166469559073448,
          -0.09689311683177948, -0.08855001628398895, -0.17513787746429443,
          0.19029878079891205, 0.08667369931936264, -0.04864818602800369,
          -0.04487690329551697, -0.16106444597244263, -0.1821610927581787,
          -0.07416797429323196, 0.1000005304813385, -0.004039648920297623,
          -0.01717640645802021, 0.07311718910932541, 0.08189312368631363,
          -0.0519174262881279, -0.1368371844291687, 0.012321712449193,
          -0.014087874442338943, -0.016551146283745766, -0.1873643845319748,
          0.12770670652389526, -0.18564613163471222, -0.10954637080430984,
          0.08749841153621674, 0.05319387465715408, -0.14473624527454376,
          -0.1539590209722519, -0.07992871850728989, -0.11612363159656525,
          0.1769319325685501, -0.14808499813079834, -0.006467998959124088,
          -0.12400651723146439, 0.06343235075473785, -0.10881694406270981,
          0.1505369395017624, 0.05543894320726395, 0.1260761171579361,
          -0.16251185536384583, -0.116166852414608, 0.09183170646429062,
          -0.19249282777309418, 0.061179958283901215, -0.038323696702718735,
          0.033371713012456894, -0.14207574725151062, -0.19930478930473328,
          0.14896419644355774, 0.12979213893413544, 0.13734611868858337,
          0.18751773238182068, 0.11144739389419556, -0.10397703945636749,
          -0.15331073105335236, -0.16349934041500092, 0.15781180560588837,
          0.04168684780597687, 0.10750667750835419, -0.14281995594501495,
          0.08807064592838287, -0.09801783412694931, 0.18922527134418488,
          0.11057665199041367, -0.08912430703639984, 0.07000481337308884,
          0.01873897761106491, -0.07875983417034149, 0.1907520294189453,
          0.07992894947528839, -0.18569190800189972, -0.03311440721154213,
          0.04079943150281906, 0.01247473619878292, -0.041111428290605545,
          0.005028157494962215, -0.18297924101352692, 0.06216607242822647,
          -0.08410061150789261, 0.07213637232780457, -0.08298657089471817,
          0.12890595197677612, 0.14317429065704346, -0.14180684089660645,
          -0.11152014881372452, 0.018188918009400368, -0.8936037421226501,
          -0.9119487404823303, -0.9990074634552002, -0.7157931327819824,
          -0.9170318841934204, -0.7349964380264282, -0.9263156056404114,
          -0.696580171585083, -0.7808105945587158, -0.6732774972915649,
          -0.880286693572998, -0.7311455011367798, -0.8218833804130554,
          -0.8354064226150513, -0.8209320902824402, -0.6396620869636536,
          -0.6630440354347229, -0.6288160681724548, -0.5561723709106445,
          -0.7423028349876404, -0.939964771270752, -0.7863396406173706,
          -0.8769734501838684, -0.9152035117149353, -0.7898473143577576,
          -0.7281793355941772, -0.7484558820724487, -0.6405264139175415,
          -0.6129643321037292, -0.5199782848358154, -0.5770857334136963,
          -0.565257728099823, -0.6267938613891602, -0.656754195690155,
          -0.5778897404670715, -0.841325581073761, -0.5846327543258667,
          -0.593288004398346, -0.5355258584022522, -0.5682661533355713,
          -0.5583123564720154, -0.6327111721038818, -0.7858638167381287,
          -0.7734841704368591, -0.6099012494087219, -0.6654324531555176,
          -0.7068774700164795, -0.4314018785953522, -0.48979440331459045,
          -0.4979477822780609, -0.4932089149951935, -0.4826449453830719,
          -0.5678423643112183, -0.6809616088867188, -0.5607072114944458,
          -0.5665701031684875, -0.4449246823787689, -0.5669426321983337,
          -0.23997503519058228, -0.43492692708969116, -0.3236590325832367,
          -0.3502960801124573, -0.2809305787086487, -0.5631966590881348,
          -0.38885971903800964, -0.3194052278995514, -0.2701370418071747,
          -0.2780047059059143, -0.2536502480506897, -0.3386365473270416,
          -0.2735840380191803, -0.35427844524383545, -0.4039264917373657,
          -0.4754922389984131, -0.23813031613826752, -0.23497731983661652,
          -0.28180450201034546, -0.2001192718744278, -0.15801802277565002,
          -0.3739888370037079, -0.3029893636703491, -0.34130582213401794,
          -0.30036982893943787, -0.5694617033004761, -0.6105816960334778,
          -0.6136853098869324, -0.4977028965950012, -0.37688854336738586,
          -0.6415562033653259, -0.4840698540210724, -0.4054141640663147,
          -0.41486191749572754, -0.5540409684181213, -0.6403183937072754,
          -0.2945386469364166, -0.36406993865966797, -0.568041205406189,
          -0.5705416798591614, -0.36192578077316284, -0.32800206542015076,
          -0.49041321873664856, -0.5655306577682495, -0.41748127341270447,
          -0.23438338935375214, -0.3453727662563324, -0.2872817814350128,
          -0.34716564416885376, -0.3911248445510864, -0.33074846863746643,
          -0.3912287652492523, -0.36955177783966064, -0.12020435184240341,
          -0.15879981219768524, -0.3401980996131897, -0.24879279732704163,
          -0.4501635432243347, -0.20026558637619019, -0.10988062620162964,
          -0.17936499416828156, -0.23252424597740173, -0.2556973695755005,
          -0.3672284483909607, -0.41816094517707825, -0.08563384413719177,
          -0.3674617409706116, -0.3364434540271759, -0.06367384642362595,
          -0.41161322593688965, -0.2783166170120239, -0.06760130822658539,
          -0.17181344330310822, -0.2411871701478958, -0.2177843600511551,
          -0.4204270839691162, -0.1554459184408188, -0.14280840754508972,
          -0.18786092102527618, -0.197794109582901, -0.06374827772378922,
          -0.20373447239398956, -0.1539677530527115, -0.09497930854558945,
          -0.2695482075214386, -0.2631461024284363, -0.2835182845592499,
          -0.006708031054586172, -0.31705915927886963, 0.02800246886909008,
          -0.10916628688573837, -0.16179977357387543, 0.028277266770601273,
          -0.029843855649232864, -0.28257113695144653, -0.04904259741306305,
          0.03328278288245201, -0.1800944209098816, -0.3289206326007843,
          -0.20648962259292603, 0.020296873524785042, 0.033838871866464615,
          -0.21862852573394775, 0.024198712781071663, -0.13810710608959198,
          -0.1472279131412506, -0.2486720234155655, -0.09564878791570663,
          -0.1313755363225937, -0.28467077016830444, 0.0527678057551384,
          0.01739434339106083, -0.2542019188404083, -0.14452025294303894,
          0.06865117698907852, -0.1311998963356018, -0.2207731008529663,
          -0.05299249663949013, -0.00448079826310277, -0.012638100422918797,
          -0.006977543700486422, 0.060257017612457275, -0.22938783466815948,
          -0.2208772599697113, -0.06370913982391357, -0.05068609490990639,
          -0.12530168890953064, -0.08539820462465286, -0.13431526720523834,
          -0.03956547752022743, -0.05122813209891319, -0.1317499876022339,
          -0.02407207153737545, -0.2292851358652115, -0.12328016012907028,
          0.01992367021739483, -0.17587389051914215, 0.08270411193370819,
          -0.09425027668476105, -0.06415081769227982, 0.028080221265554428,
          -0.0856873095035553, -0.08697409927845001, 0.0899830311536789,
          0.07531381398439407, 0.09420163929462433, 0.12476057559251785,
          -0.07490462064743042, 0.11894366890192032, -0.14049135148525238,
          -0.21411317586898804, 0.06972706317901611, -0.027418352663517,
          -0.07163388282060623, 0.06279211491346359, -0.1888768970966339,
          -0.20274239778518677, 0.007478089537471533, 0.15869060158729553,
          -0.1617288887500763, -0.014684442430734634, -0.01510566659271717,
          -0.08770196884870529, 0.10317543894052505, 0.032841622829437256,
          -0.013914505019783974, -0.014397073537111282, -0.1906065195798874,
          0.07485155761241913, 0.0443568080663681, 0.07866998761892319,
          0.047603365033864975, -0.12770438194274902, -0.006109951995313168,
          -0.018552254885435104, -0.055880408734083176, -0.207425057888031,
          -0.20902560651302338, 0.04985237121582031, -0.13114023208618164,
          -0.09221544861793518, -0.21159891784191132, -0.08453153073787689,
          -0.000637147924862802, 0.09253702312707901, -0.1370857059955597,
          -0.07106241583824158, -0.036222830414772034, -0.13691234588623047,
          -0.19088906049728394, -0.09089388698339462, 0.020457973703742027,
          -0.18544775247573853, -0.08580800890922546, 0.12216579914093018,
          -0.04325985163450241, -0.12616488337516785, 0.06387066096067429,
          0.12884581089019775, -0.028423139825463295, -0.09736470133066177,
          0.05602850019931793, 0.097852423787117, 0.041155263781547546,
          0.14584054052829742, -0.09861387312412262, -0.22958911955356598,
          0.1782926768064499, -0.02165609411895275, 0.014167249202728271,
          0.05552061274647713, 0.06439212709665298, 0.012476696632802486,
          0.09652850031852722, 0.06442366540431976, -0.11047372967004776,
          0.06844170391559601, -0.21264556050300598, 0.14553263783454895,
          -0.23547551035881042, -0.017801433801651, -0.1097600907087326,
          -0.01131894625723362, -0.12867392599582672, 0.04627300798892975,
          0.0057848538272082806, -0.13769185543060303, -0.09005984663963318,
          -0.056308843195438385, 0.009018954820930958, -0.15412616729736328,
          0.14968882501125336, 0.03685823827981949, -0.16332878172397614,
          0.019509153440594673, -0.06741500645875931, -0.19544540345668793,
          0.17599989473819733, -0.1596289873123169, 0.12526825070381165,
          -0.07728216797113419, -0.012788686901330948, 0.09219393134117126,
          -0.21194469928741455, -0.07548066973686218, -0.12486857920885086,
          -0.15417465567588806, -0.20883820950984955, 0.09405236691236496,
          0.14523422718048096, -0.16926971077919006, -0.09797731041908264,
          -0.17384561896324158, -0.06087922677397728, -0.11410842090845108,
          0.04309535771608353, -0.09185791015625, 0.03905550017952919,
          0.046775687485933304, 0.12378876656293869, -0.024371564388275146,
          -0.06331517547369003, -0.03878849372267723, -0.1073274165391922,
          0.15664133429527283, -0.19119597971439362, -0.1842416524887085,
          0.08607715368270874, -0.11895133554935455, 0.16138865053653717,
          -0.18838268518447876, 0.0036626867949962616, -0.04553646594285965,
          -0.016753241419792175, 0.09599065035581589, -0.06839605420827866,
          -0.09579920023679733, 0.10420706868171692, 0.07518699020147324,
          0.08398997038602829, -0.006344265770167112, -0.05326490476727486,
          -0.1914440095424652, -0.10052967816591263, -0.04903426393866539,
          0.09596934914588928, -0.14960308372974396, 0.06549566984176636,
          0.028032859787344933, 0.12365429848432541, -0.07482268661260605,
          0.12369528412818909, -0.16610756516456604, 0.024611445143818855,
          -0.09509970247745514, -0.010141448117792606, -0.20409207046031952,
          0.13131560385227203, 0.007478585001081228, -0.07726995646953583,
          0.1401534378528595, -0.10383273661136627, 0.05622255057096481,
          0.14741040766239166, 0.0988364964723587, 0.08276387304067612,
          -0.2043694108724594, -0.11016333848237991, -0.02008260227739811,
          0.021131008863449097, -0.15393663942813873, -0.05549148842692375,
          -0.11016279458999634, -0.1187334805727005, 0.14032511413097382,
          -0.07815895229578018, -0.08640515059232712, -0.007134528830647469,
          0.06909027695655823, -0.19340680539608002, -0.14648616313934326,
          0.0687759667634964, 0.0036464459262788296, 0.10668281465768814,
          0.07584375888109207, 0.11951687186956406, -0.01522698625922203,
          0.04835790768265724, 0.021867476403713226, -0.10931972414255142,
          0.12647926807403564, 0.12536795437335968, 0.1674049198627472,
          -0.05499281361699104, -0.0466402992606163, -0.0717022642493248,
          0.03757219389081001, 0.0012152636190876365, -0.1594422459602356,
          -0.007306091953068972, -0.17499570548534393, 0.011949310079216957,
          0.09966152906417847, -0.0010045325616374612, 0.0020950755570083857,
          -0.07159578800201416, 0.14985519647598267, -0.07258599996566772,
          0.07397535443305969, -0.006026089657098055, 0.1429682970046997,
          0.11504516005516052, -0.08558139204978943, -0.16218869388103485,
          -0.0768592581152916, -0.1681598424911499, 0.1639106571674347,
          -0.1647680252790451, 0.00003329403989482671, -0.12039611488580704,
          0.12018390744924545, -0.10118734836578369, 0.06412093341350555,
          -0.14177310466766357, -0.17007887363433838, -0.08817490935325623,
          -0.047058504074811935, 0.012376589700579643, 0.1414991021156311,
          -0.1301662176847458, -0.021801184862852097, -0.012666039168834686,
          -0.20647203922271729, -0.016203217208385468, -0.13140296936035156,
          -0.1442297101020813, 0.07598194479942322, 0.03401293233036995,
          0.1303601861000061, -0.183718740940094, -0.1261473149061203,
          0.12982843816280365, 0.04847656190395355, -0.0635218694806099,
          0.052478592842817307, -0.07624340802431107, -0.17512492835521698,
          -0.14455902576446533, -0.19445979595184326, 0.15710972249507904,
          -0.18503959476947784, 0.13651077449321747, -0.12350685149431229,
          0.008606106974184513, -0.054143600165843964, -0.08857443928718567,
          0.11924312263727188, -0.12661148607730865, 0.17558200657367706,
          -0.15283015370368958, -0.08265616744756699, 0.0364663302898407,
          -0.10950715094804764, 0.17652618885040283, -0.1531141996383667,
          -0.10345813632011414, -0.017956247553229332, -0.1607179194688797,
          -0.09649435430765152, -0.19110582768917084, 0.006903087254613638,
          0.09682772308588028, -0.08220130205154419, 0.016073698177933693,
          -0.05120394378900528, 0.030110623687505722, 0.19389735162258148,
          -0.041502609848976135, 0.13022442162036896, 0.007069434970617294,
          0.07083335518836975, 0.009731617756187916, 0.0418599508702755,
          0.12179307639598846, 0.05895382538437843, -0.11639441549777985,
          -0.16162309050559998, -0.015184951014816761, -0.05463435500860214,
          -0.11693215370178223, 0.12660261988639832, -0.0061532980762422085,
          -0.01051362231373787, -0.16782104969024658, -0.12632092833518982,
          -0.02790311723947525, -0.19469501078128815, -0.20464468002319336,
          -0.025538800284266472, 0.18007801473140717, -0.08405695110559464,
          -0.010889771394431591, -0.14476673305034637, -0.057737529277801514,
          -0.08924036473035812, -0.12898565828800201, 0.04008777439594269,
          0.13516490161418915, -0.0909133106470108, -0.16081348061561584,
          -0.17565956711769104, 0.060407284647226334, -0.1038568764925003,
          0.031833212822675705, 0.020269809290766716, -0.14878502488136292,
          -0.013164113275706768, -0.0662834420800209, 0.03902386128902435,
          0.09071005135774612, -0.012580860406160355, -0.041256505995988846,
          -0.008586307987570763, 0.08934800326824188, 0.05039319023489952,
          0.17485074698925018, -0.12212587147951126, 0.03531079366803169,
          -0.07453802227973938, 0.1371004581451416, -0.1345963329076767,
